tree
version=v2
num_class=1
num_tree_per_iteration=1
label_index=0
max_feature_idx=25
objective=binary sigmoid:1
feature_names=junction repeat cons_2 ALU methylation cons_1 H3k27ac TF graph_28 graph_33 A-to-I graph_59 graph_16 graph_22 graph_7 graph_81 graph_101 graph_88 SNP graph_19 graph_51 graph_30 graph_35 graph_6 graph_96 graph_97
feature_infos=[0:1] [0:0.83458646599999997] [0:1] [0:0.88888888900000007] [0:0.98880976600000003] [-0.32149200700000002:0.92495559500000002] [0:0.98068671799999996] [0:0.88571428599999991] [0:1] [0:0.92125082400000002] [0:0.93125000000000002] [0:0.83359324800000001] [0:0.77674538700000006] [0:0.44208660500000002] [0:0.95748627100000006] [0:0.51500157700000004] [0:1] [0:0.63544771499999997] [0:0.470080104] [0:0.95283638100000001] [0:0.67539289499999999] [0:1] [0:0.65800021399999997] [0:0.43319838100000002] [0:0.93868806100000002] [0:0.80659811400000003]
tree_sizes=1636 1085 1089 1019 1164 944 1021 1637 939 1020 1616 1022 1648 1024 1026 1654 1021 1654 1655 1643 1028 1023 1654 1653 1647 1026 952 1656 1033 950 1028

Tree=0
num_leaves=20
num_cat=0
split_feature=0 9 0 6 5 22 13 20 13 6 6 22 5 6 9 5 9 12 0
split_gain=234.038 147.32 104.046 77.8456 42.2285 30.1019 29.118 18.9491 15.1317 12.2539 11.2228 10.2044 9.94541 7.28178 5.00739 5.18456 5.14848 3.8971 3.89079
threshold=1.0000000180025095e-35 0.14836382550000002 0.0075764620000000008 0.0032528230000000006 0.10489899500000001 0.044716496500000001 0.081838989000000015 0.097944565500000011 0.10824839300000001 1.0000000180025095e-35 0.0097584535000000017 0.14571388100000002 0.048445245500000018 0.0036046395000000008 0.11390893650000002 0.053402433500000006 1.0000000180025095e-35 0.096728632500000009 0.0050628865000000014
decision_type=2 2 2 2 2 2 2 2 2 2 2 2 2 2 2 2 2 2 2
left_child=1 5 18 17 -3 8 11 12 10 -9 -1 -5 -7 -6 16 -16 -11 -4 -2
right_child=2 4 3 6 13 7 -8 9 -10 14 -12 -13 -14 -15 15 -17 -18 -19 -20
leaf_value=0.013908946780822922 0.23472955301294565 0.19892555225677938 -0.12550348133067313 0.20228654784597472 -0.12409686582106144 0.10093098883404031 -0.028079402264890599 0.011069515028557353 -0.11213435419571777 -0.067774411354558167 0.19566313552974821 0.07204965097161059 -0.05970890479811615 0.044091700816615648 -0.0011919474394271323 -0.13355899597837401 -0.15228420066458695 -0.024656372423949899 0.1805022582208787
leaf_count=38 210 112 71 99 20 21 38 25 23 33 21 32 57 21 22 26 279 20 74
internal_value=0 -0.766538 0.983488 0.068885 0.96723 -1.25344 0.872065 -1.45125 -0.135573 -1.63345 0.400687 1.31911 -0.550314 -0.76742 -1.72749 -1.11877 -1.82055 -1.42148 1.82028
internal_count=1242 698 544 260 153 545 169 463 82 385 59 131 78 41 360 48 312 91 284
shrinkage=1


Tree=1
num_leaves=13
num_cat=0
split_feature=7 7 7 11 17 0 17 0 22 24 11 0
split_gain=442.59 293.234 137.818 66.8624 15.9966 11.4391 10.5404 5.09787 4.73032 4.14864 0.529927 0.0533093
threshold=0.025396825500000005 1.0000000180025095e-35 0.036507936500000011 0.19821913800000004 0.120065925 0.00079057300000000014 0.12071683700000001 0.011598325500000001 0.10836628900000002 0.07411492950000001 0.19368300150000003 1.0000000180025095e-35
decision_type=2 2 2 2 2 2 2 2 2 2 2 2
left_child=1 10 11 4 5 -4 8 -7 -5 -6 -1 -2
right_child=2 -3 3 6 9 7 -8 -9 -10 -11 -12 -13
leaf_value=0.1867636030005114 0.1924410598494761 -0.1922167158146669 -0.0712453117583704 -0.084462916645098363 0.07811744992486469 0.16095968861116772 -0.0019418093639394962 0.017456056177049165 -0.18977953524829166 0.18381776368577696 0.14622675111135816 0.18269748492352345
leaf_count=84 114 482 32 25 22 20 22 20 58 50 20 293
internal_value=0 -1.26466 1.13434 -0.0410624 0.847752 0.178283 -1.25661 0.893865 -1.58304 1.51733 1.79187 1.85503
internal_count=1242 586 656 249 144 72 105 40 83 72 104 407
shrinkage=0.1


Tree=2
num_leaves=13
num_cat=0
split_feature=7 7 7 11 19 1 25 4 19 12 2 22
split_gain=365.878 242.273 115.22 54.954 14.3291 9.54589 5.69929 6.16039 5.19081 0.749 0.649183 0.0145722
threshold=0.025396825500000005 1.0000000180025095e-35 0.036507936500000011 0.19821913800000004 0.34285569000000005 0.022772448500000004 0.10232555300000001 0.48428705850000014 0.30241444000000006 0.07840118950000001 0.92060523650000015 0.18802142100000002
decision_type=2 2 2 2 2 2 2 2 2 2 2 2
left_child=1 10 -2 4 6 8 -4 -8 -5 -6 -1 -7
right_child=2 -3 3 5 9 11 7 -9 -10 -11 -12 -13
leaf_value=0.17306698468425108 0.17108148163202655 -0.17615203516129296 -0.054161740525908421 -0.10942361236034832 0.12681647931875148 -0.17608708783994984 -0.0054899198382023992 0.13212692497496781 0.024130903824224656 0.17342215520064563 0.12901492421972491 -0.15566556959207808
leaf_count=84 407 482 27 25 34 38 28 25 22 30 20 20
internal_value=0 -1.15951 1.04189 -0.0371795 0.774282 -1.14496 0.206117 0.592044 -0.470009 1.49046 1.64833 -1.69468
internal_count=1242 586 656 249 144 105 80 53 47 64 104 58
shrinkage=0.1


Tree=3
num_leaves=12
num_cat=0
split_feature=7 7 7 11 9 14 9 13 24 11 4
split_gain=306.525 203.297 98.2343 45.4463 20.0379 15.5802 8.2297 5.42443 2.39191 0.490239 0.0360384
threshold=0.025396825500000005 1.0000000180025095e-35 0.036507936500000011 0.19821913800000004 0.088407615500000022 0.085619281500000019 0.11099776100000001 0.04411929500000001 0.041839515500000014 0.19368300150000003 0.19077940000000002
decision_type=2 2 2 2 2 2 2 2 2 2 2
left_child=1 9 -2 4 5 -4 7 -5 -6 -1 -9
right_child=2 -3 3 6 8 -7 -8 10 -10 -11 -12
leaf_value=0.16096181426461925 0.15995285039086465 -0.16389786101748849 0.082910199670483353 -0.040445387571355379 0.082213134836193857 -0.11343811111155283 0.011296728152937502 -0.14682449753043847 0.16385098275039495 0.12175300207826023 -0.16780708774497413
leaf_count=84 407 482 35 20 21 31 20 20 57 20 45
internal_value=0 -1.07893 0.966756 -0.0340043 0.708936 -0.105672 -1.05119 -1.32909 1.41625 1.53551 -1.61731
internal_count=1242 586 656 249 144 66 105 85 78 104 65
shrinkage=0.1


Tree=4
num_leaves=14
num_cat=0
split_feature=7 7 7 9 13 22 24 6 22 6 8 2 9
split_gain=259.614 172.635 84.83 37.8697 21.5317 9.02774 4.62409 4.60527 4.75921 2.66926 0.781393 0.601087 0.0500252
threshold=0.025396825500000005 1.0000000180025095e-35 0.036507936500000011 0.12646590100000002 0.048355797500000006 0.12165682750000002 0.06282122100000001 0.0043082810000000015 0.14910778500000002 0.0097584535000000017 0.10652666100000001 0.92060523650000015 0.17497362899999999
decision_type=2 2 2 2 2 2 2 2 2 2 2 2 2
left_child=1 11 -2 4 5 9 -5 10 -9 -4 -6 -1 -8
right_child=2 -3 3 6 7 -7 12 8 -10 -11 -12 -13 -14
leaf_value=0.15266275085382086 0.15112655806940986 -0.15427137324887577 0.041610063414043399 0.037578750856387275 -0.1131761293768283 -0.06607049409236708 0.13846918963537649 0.012436675046057135 -0.12811239328013732 0.14202839910980739 -0.16503578400233732 0.10927469327761674 0.16128000371908469
leaf_count=84 407 482 25 20 20 25 20 20 21 20 44 20 34
internal_value=0 -1.01538 0.905292 -0.0313097 -0.55012 0.32224 1.21119 -1.14499 -0.598626 0.866992 -1.49033 1.44471 1.53362
internal_count=1242 586 656 249 175 70 74 105 41 45 64 104 54
shrinkage=0.1


Tree=5
num_leaves=11
num_cat=0
split_feature=7 7 7 11 9 14 1 3 9 2
split_gain=221.56 147.965 74.2059 34.378 13.8095 11.3258 7.90516 1.65682 1.41539 0.57327
threshold=0.025396825500000005 1.0000000180025095e-35 0.036507936500000011 0.19239825100000002 0.088407615500000022 0.085619281500000019 0.011302682000000003 1.0000000180025095e-35 0.098006644500000004 0.92060523650000015
decision_type=2 2 2 2 2 2 2 2 2 2
left_child=1 9 -2 4 5 -4 -5 -6 -8 -1
right_child=2 -3 3 6 7 -7 8 -9 -10 -11
leaf_value=0.14519545024919875 0.14398118658198156 -0.14653658073709447 0.075588997867038085 -0.013347166019183912 0.082599267026808032 -0.09497908221752914 -0.15186780596097746 0.14890009676590882 -0.084526205136856089 0.10212018744100732
leaf_count=84 407 482 35 35 26 30 52 51 20 20
internal_value=0 -0.964047 0.852129 -0.0288068 0.641267 -0.0402502 -0.92259 1.25846 -1.33086 1.36949
internal_count=1242 586 656 249 142 65 107 77 72 104
shrinkage=0.1


Tree=6
num_leaves=12
num_cat=0
split_feature=7 7 7 7 7 20 22 17 25 25 3
split_gain=190.426 127.774 65.391 31.1222 22.3051 15.148 9.07205 3.93465 2.02032 0.58301 0.00260975
threshold=0.025396825500000005 1.0000000180025095e-35 0.036507936500000011 0.050793650500000016 0.061904762000000009 0.15162625150000003 0.12165682750000002 0.10036396100000002 0.16073231700000004 0.22308776300000002 1.0000000180025095e-35
decision_type=2 2 2 2 2 2 2 2 2 2 2
left_child=1 9 -2 -4 10 6 8 -7 -6 -1 -5
right_child=2 -3 3 4 5 7 -8 -9 -10 -11 -12
leaf_value=0.1391748330994694 0.13810133480876371 -0.14021013196765239 -0.16435327295256452 0.16436217236195405 0.059154879121110795 -0.13499161041283164 -0.029918282574095581 -0.028224712296613975 0.14328511412193035 0.094980726071674612 0.14496307789550256
leaf_count=84 407 482 43 20 24 35 39 28 28 20 32
internal_value=0 -0.921842 0.807093 -0.0267037 0.318426 -0.0808134 0.467047 -0.879045 1.04268 1.30614 1.53358
internal_count=1242 586 656 249 206 154 91 63 52 104 52
shrinkage=0.1


Tree=7
num_leaves=20
num_cat=0
split_feature=17 0 0 14 6 22 9 22 22 9 5 6 0 12 14 3 9 13 21
split_gain=92.7814 37.9719 30.2468 17.6356 16.5545 13.8666 8.62638 8.23182 6.86044 6.35778 6.32152 6.21563 5.64871 5.93793 4.2181 3.24227 3.04234 2.63921 2.43561
threshold=0.120065925 1.0000000180025095e-35 0.0075764620000000008 0.14235160650000003 0.0043082810000000015 0.029470894500000004 0.14617940200000001 0.13241487950000005 0.11754972750000002 0.11275016850000001 0.065532055500000005 0.0097584535000000017 1.0000000180025095e-35 0.089935702500000006 0.040547876500000003 0.041241497000000009 1.0000000180025095e-35 0.030613487000000005 0.20071027950000003
decision_type=2 2 2 2 2 2 2 2 2 2 2 2 2 2 2 2 2 2 2
left_child=1 5 15 9 17 11 14 -6 -5 12 -8 -1 13 -2 -7 -3 -16 -4 -11
right_child=3 2 4 8 7 6 10 -9 -10 18 -12 -13 -14 -15 16 -17 -18 -19 -20
leaf_value=-0.045723287030847021 -0.058346133258095338 0.1278534830376403 -0.033673556007237031 0.03844074181700332 0.09733006459954642 -0.050766500826610175 0.071515199350412659 -0.049925022398331909 -0.096881201498841038 0.13158573879283184 -0.097663032313780929 0.097846019362240147 0.10233409235479299 0.084488055156126063 -0.059982243633350009 0.030975744998189305 -0.12880885035115128 -0.12369904546674244 0.061577387522166377
leaf_count=37 30 94 20 47 45 49 24 32 32 221 20 26 78 27 37 22 297 74 30
internal_value=0 -0.474069 0.175384 0.808441 -0.409573 -0.857898 -1.00495 0.355383 -0.160446 1.01144 -0.0683594 0.12623 0.618094 0.093137 -1.11571 1.08862 -1.20964 -1.03608 1.23102
internal_count=1242 777 287 465 171 490 427 77 79 386 44 63 135 57 383 116 334 94 251
shrinkage=0.1


Tree=8
num_leaves=11
num_cat=0
split_feature=7 7 7 7 11 8 14 1 11 7
split_gain=151.704 102.544 54.0757 24.5139 21.4523 7.61726 5.49374 5.14898 0.603902 0.273931
threshold=0.025396825500000005 1.0000000180025095e-35 0.036507936500000011 0.050793650500000016 0.22101947800000002 0.16167385300000001 0.10976771250000002 0.022772448500000004 0.19368300150000003 0.34920634950000001
decision_type=2 2 2 2 2 2 2 2 2 2
left_child=1 8 -2 -4 5 6 9 -6 -1 -5
right_child=2 -3 3 4 7 -7 -8 -9 -10 -11
leaf_value=0.13179681922286682 0.13100165620394766 -0.1325103208197474 -0.15176268495440451 0.14286539460634881 -0.0081387140704469434 -0.019237467749433971 0.019377517649336366 -0.1271511179410966 0.085311529146108914 0.10972637463483242
leaf_count=84 407 482 43 63 31 29 25 38 20 20
internal_value=0 -0.869869 0.7515 -0.0248959 0.289474 0.793715 1.06374 -0.69623 1.22574 1.34652
internal_count=1242 586 656 249 206 137 108 69 104 83
shrinkage=0.1


Tree=9
num_leaves=12
num_cat=0
split_feature=7 7 7 7 11 6 22 22 17 12 7
split_gain=131.978 89.7698 48.3896 21.0575 18.0616 8.28777 4.29099 2.75706 1.17783 0.655393 0.39627
threshold=0.025396825500000005 1.0000000180025095e-35 0.036507936500000011 0.050793650500000016 0.22101947800000002 0.0029164915000000004 0.12165682750000002 0.13416648250000004 0.098358288500000016 0.036049363500000008 0.23650793650000004
decision_type=2 2 2 2 2 2 2 2 2 2 2
left_child=1 9 -2 -4 5 -5 -6 10 -8 -1 -7
right_child=2 -3 3 4 6 7 8 -9 -10 -11 -12
leaf_value=0.078557542813757902 0.12722176376865355 -0.12849910833694744 -0.1448694232294773 -0.012004938313418886 0.013048759400068286 0.14216697134253853 -0.13531018734698413 0.045010925096955035 -0.062892308480443651 0.12806615401966201 0.1024077089491961
leaf_count=20 407 482 43 37 21 54 28 25 20 84 21
internal_value=0 -0.842599 0.718672 -0.0232585 0.269795 0.740432 -0.647842 1.08831 -1.03559 1.18147 1.31047
internal_count=1242 586 656 249 206 137 69 100 48 104 75
shrinkage=0.1


Tree=10
num_leaves=20
num_cat=0
split_feature=11 14 17 17 14 2 8 3 8 16 19 17 9 2 19 9 9 8 2
split_gain=69.8792 30.7749 16.6429 12.2553 10.1252 8.70197 5.72011 6.13925 4.56851 4.32981 4.42693 3.90096 3.86216 2.82216 3.8361 2.77223 2.38894 3.65699 1.98559
threshold=0.20267352000000002 0.14384454300000002 0.12796560800000004 0.10792566450000002 0.1075956705 0.6776606595000001 0.19485841100000004 0.041241497000000009 0.10876595900000001 0.13464050150000004 0.38504364050000006 0.16327646850000002 0.11689168100000001 0.71472288350000013 0.36852101800000009 0.012332081500000001 0.090811426000000015 0.14545118700000001 0.85906154350000008
decision_type=2 2 2 2 2 2 2 2 2 2 2 2 2 2 2 2 2 2 2
left_child=1 3 9 6 12 -3 7 13 -9 10 18 15 -4 -1 -15 -7 17 -5 -2
right_child=2 5 4 16 -6 11 -8 8 -10 -11 -12 -13 -14 14 -16 -17 -18 -19 -20
leaf_value=0.13135479564694083 -0.021241231864933572 0.1034572898831576 0.0055451520683883039 0.096680081677566587 -0.088061657970328 -0.0252365152879864 -0.055857464307017726 0.042968035485353891 -0.11205887120798866 -0.12260033460251057 0.027530616727246132 0.018678526092953434 0.13593296127933846 0.019281907395662271 0.095767334762246609 -0.10717247482292824 0.11424363042717474 -0.01117441024751635 -0.10667644220827584
leaf_count=30 20 20 23 70 33 33 37 23 23 236 23 25 31 94 70 93 259 25 74
internal_value=0 0.438171 -0.781685 0.695478 0.153726 -0.474209 0.31427 0.455596 -0.355037 -1.02459 -0.651031 -0.67383 0.800484 0.645154 0.512856 -0.851136 1.01053 0.681179 -0.884138
internal_count=1242 802 440 631 87 171 277 240 46 353 117 151 54 194 164 126 354 95 94
shrinkage=0.1


Tree=11
num_leaves=12
num_cat=0
split_feature=7 7 7 7 7 9 11 14 9 2 18
split_gain=107.31 72.795 40.763 16.9147 14.1745 8.99325 7.05288 6.58466 3.23426 0.747357 0.053473
threshold=0.025396825500000005 1.0000000180025095e-35 0.036507936500000011 0.050793650500000016 0.061904762000000009 0.13079764050000003 0.19239825100000002 0.085619281500000019 0.057987249000000012 0.92060523650000015 0.00017580100000000003
decision_type=2 2 2 2 2 2 2 2 2 2 2
left_child=1 9 -2 -4 -5 6 7 -6 -8 -1 -10
right_child=2 -3 3 4 5 -7 8 -9 10 -11 -12
leaf_value=0.12328290700480167 0.12251117481792494 -0.12344664361015099 -0.13677337343761306 0.13432063090528751 0.092616867239400047 0.085959727565310937 -0.018800773143523609 -0.070349072558207132 -0.11230993852289727 0.06809653163843192 -0.13743255580578106
leaf_count=84 407 482 43 52 29 39 21 20 20 20 25
internal_value=0 -0.810373 0.678183 -0.0217462 0.246922 -0.084561 -0.40253 0.219398 -0.90735 1.1203 -1.27263
internal_count=1242 586 656 249 206 154 115 49 66 104 45
shrinkage=0.1


Tree=12
num_leaves=20
num_cat=0
split_feature=11 0 17 17 4 0 6 0 22 12 9 8 9 11 4 8 13 9 23
split_gain=52.2827 23.1104 15.4537 13.1838 8.16286 7.59178 11.343 6.72448 5.27179 4.64156 4.471 2.92926 2.3589 2.86835 2.30601 2.0951 1.85358 1.53223 1.36087
threshold=0.20267352000000002 1.0000000180025095e-35 0.11620656500000003 0.12796560800000004 0.073976905500000009 0.0075764620000000008 0.0029164915000000004 1.0000000180025095e-35 0.042739953000000004 0.011406742000000001 0.089827386999999995 0.13455697600000002 0.12315621450000001 0.26411949950000008 0.2847819820000001 0.10575532450000001 0.087350495500000014 0.14086202750000001 0.028979091500000002
decision_type=2 2 2 2 2 2 2 2 2 2 2 2 2 2 2 2 2 2 2
left_child=1 2 4 8 -1 -3 -7 11 -2 14 15 -5 18 -14 -6 -4 -8 -11 -10
right_child=3 5 10 7 9 6 16 -9 12 17 -12 -13 13 -15 -16 -17 -18 -19 -20
leaf_value=0.10120158396758419 0.0088955966634537541 0.11754190987733659 0.06196236344271619 0.012324871230295006 -0.069970720566818287 -0.071028831854507354 0.099256079222599491 0.089994576935451306 -0.056363216774228411 -0.096236915479817789 0.090106709852558711 -0.11448304068727844 0.017384367623154009 -0.109808353380349 0.031380607611763693 -0.03888584214227031 0.020119682177522979 -0.020933322113315556 -0.12078840091832657
leaf_count=24 26 240 20 22 21 39 102 42 22 130 112 23 20 25 39 33 22 20 260
internal_value=0 0.399198 -0.0336916 -0.72055 -0.450621 0.854415 0.438897 0.153484 -0.953402 -0.605886 0.582709 -0.505656 -1.05211 -0.514479 -0.0335146 0.00252764 0.833507 -0.856215 -1.14742
internal_count=1242 802 399 440 234 403 163 87 353 210 165 45 327 45 60 53 124 150 282
shrinkage=0.1


Tree=13
num_leaves=12
num_cat=0
split_feature=7 7 7 7 7 13 0 1 0 22 22
split_gain=87.4653 60.089 34.1647 13.8343 11.4028 8.87204 5.9459 3.63454 1.55121 0.8374 0.715504
threshold=0.025396825500000005 1.0000000180025095e-35 0.036507936500000011 0.050793650500000016 0.061904762000000009 0.087350495500000014 1.0000000180025095e-35 0.022389306500000004 0.0083377825000000017 0.14404250050000003 0.15874839700000001
decision_type=2 2 2 2 2 2 2 2 2 2 2
left_child=1 10 -2 -4 -5 6 7 -6 -8 -7 -1
right_child=2 -3 3 4 5 9 8 -9 -10 -11 -12
leaf_value=0.11993412857416928 0.11881015918602894 -0.11955691407150815 -0.13089968291089835 0.12839110271159856 0.014310493389973991 -0.064065015410500747 0.13107107042494601 -0.11580266964926217 0.049058794205944008 -0.13072489224142941 0.065651978096925273
leaf_count=80 407 482 43 52 34 23 25 20 30 22 24
internal_value=0 -0.781646 0.646364 -0.0180356 0.232926 -0.0704342 0.28718 -0.240545 0.854438 -0.96329 1.07175
internal_count=1242 586 656 249 206 154 109 54 55 45 104
shrinkage=0.1


Tree=14
num_leaves=12
num_cat=0
split_feature=7 7 7 7 7 13 0 4 6 6 2
split_gain=76.9628 53.2581 30.9484 12.1027 10.1043 7.50494 5.0393 3.12674 2.0697 1.85776 0.851101
threshold=0.025396825500000005 1.0000000180025095e-35 0.036507936500000011 0.050793650500000016 0.061904762000000009 0.087350495500000014 1.0000000180025095e-35 0.21678783650000003 0.0054169975000000004 0.0032171285000000007 0.92060523650000015
decision_type=2 2 2 2 2 2 2 2 2 2 2
left_child=1 10 -2 -4 -5 6 7 -6 -8 -7 -1
right_child=2 -3 3 4 5 9 8 -9 -10 -11 -12
leaf_value=0.11749520356257431 0.11672270139713362 -0.11737072101975365 -0.12727447540868236 0.12515137988185704 -0.096037623907545541 -0.13558648826338124 0.02366770571384183 0.019527646666333009 0.12027068013172766 -0.035706193150902274 0.054389267844506289
leaf_count=84 407 482 43 52 20 24 21 34 34 21 20
internal_value=0 -0.765824 0.624145 -0.0171073 0.219021 -0.0656934 0.266025 -0.221322 0.800355 -0.904431 1.04081
internal_count=1242 586 656 249 206 154 109 54 55 45 104
shrinkage=0.1


Tree=15
num_leaves=20
num_cat=0
split_feature=11 14 9 17 0 0 20 9 20 9 16 17 19 20 5 11 13 19 25
split_gain=36.0316 16.9945 9.23843 9.04069 8.55164 4.97327 4.92443 3.87819 3.48694 3.37152 2.71384 2.65792 3.85257 2.54117 2.06684 1.73348 1.48635 1.27902 1.23856
threshold=0.21368226200000004 0.14384454300000002 0.18162915550000003 0.12909225250000003 1.0000000180025095e-35 0.014873073500000002 0.042849244500000001 0.17007947800000003 0.11156864700000001 0.012332081500000001 0.23186723250000002 0.12071683700000001 0.3101743285000001 0.058695293500000016 0.084098797500000003 0.10335430200000002 0.11815425900000001 0.29745663350000007 0.18390787850000004
decision_type=2 2 2 2 2 2 2 2 2 2 2 2 2 2 2 2 2 2 2
left_child=1 3 6 4 10 -6 -2 9 -7 16 14 18 -13 -5 17 -16 -3 -1 -8
right_child=2 7 -4 13 5 8 11 -9 -10 -11 -12 12 -14 -15 15 -17 -18 -19 -20
leaf_value=0.0032633724146628761 0.023589243558308194 0.041160311207673141 0.062829785929087709 0.024222859300986718 0.10192306989304251 0.084695186000727535 -0.072117109177158953 0.047227398263442112 -0.051852931796725038 -0.093711056179620306 -0.084229978196509472 -0.094410631414710927 0.058556596363812954 0.10642860284064388 0.0012420927001513347 -0.092831238879606412 -0.052397362245643821 0.079795162888751339 -0.11814528370180771
leaf_count=41 26 24 34 33 139 24 66 29 33 101 39 34 20 264 37 23 24 27 224
internal_value=0 0.341239 -0.706415 0.560777 0.269314 0.693244 -0.848475 -0.424516 0.0344276 -0.616042 -0.175612 -0.951467 -0.390025 0.95654 0.0079077 -0.358166 -0.0489589 0.332684 -1.07052
internal_count=1242 838 404 660 363 196 370 178 57 149 167 344 54 297 128 60 48 68 290
shrinkage=0.1


Tree=16
num_leaves=12
num_cat=0
split_feature=7 7 7 7 7 20 6 22 7 22 6
split_gain=63.0807 44.9555 26.3121 10.296 8.32729 6.16362 3.77853 6.06465 2.0377 0.805758 0.122511
threshold=0.025396825500000005 1.0000000180025095e-35 0.036507936500000011 0.050793650500000016 0.061904762000000009 0.15162625150000003 0.0019623575000000002 0.12165682750000002 0.11269841250000001 0.15874839700000001 0.014782161000000002
decision_type=2 2 2 2 2 2 2 2 2 2 2
left_child=1 9 -2 -4 -5 6 -6 10 -7 -1 -8
right_child=2 -3 3 4 5 8 7 -9 -10 -11 -12
leaf_value=0.11545357573132659 0.11408156979698497 -0.11473324916439341 -0.12397725683511163 0.12159945685300649 -0.050966708922152985 -0.12651022000415732 0.10319409915870426 -0.031307451942475292 -0.031707206824341187 0.053626364592453096 0.13549183208790985
leaf_count=80 407 482 43 52 21 24 23 25 39 24 22
internal_value=0 -0.742025 0.59616 -0.0137529 0.210577 -0.0510313 0.346632 0.634787 -0.667459 1.00434 1.19191
internal_count=1242 586 656 249 206 154 91 70 63 104 45
shrinkage=0.1


Tree=17
num_leaves=20
num_cat=0
split_feature=0 2 0 6 13 6 22 1 13 2 5 22 22 1 16 15 16 23 6
split_gain=23.0283 30.5007 14.2364 8.76168 4.10585 3.59261 2.71635 2.44184 2.38645 3.26469 1.93561 1.43379 1.4043 1.28958 1.19167 1.19166 1.08277 0.919706 0.875398
threshold=1.0000000180025095e-35 0.72883373000000018 0.0075764620000000008 0.0032528230000000006 0.081838989000000015 0.073124977000000022 0.14499173150000003 0.033908046000000004 0.10824839300000001 0.86518191099999997 0.067048258500000013 0.10318768150000002 0.13487159350000003 0.045210727500000013 0.10239682900000001 0.12805306950000003 0.11197876000000001 0.074688674000000024 0.0010919950000000003
decision_type=2 2 2 2 2 2 2 2 2 2 2 2 2 2 2 2 2 2 2
left_child=1 -1 13 18 12 7 -7 8 9 -3 11 -11 -5 -2 15 -12 -14 -13 -4
right_child=2 5 3 4 -6 6 -8 -9 -10 10 14 17 16 -15 -16 -17 -18 -19 -20
leaf_value=0.090001324842666083 0.11017491023320036 0.029374850224702938 -0.10413036302712371 0.090436441519280472 -0.037164918689903653 0.080319445895748201 -0.068245560125266502 -0.10561413632503756 -0.10130009324104793 0.026167588857702557 -0.08594690762366311 -0.10032848059203042 0.07026983560076816 0.046956109662916599 -0.12517556896586454 -0.0035380571148214027 -0.022047894159163868 -0.01578306365729314 -0.045485766593080214
leaf_count=136 246 40 41 87 38 26 22 194 94 28 49 22 23 38 42 21 21 24 50
internal_value=0 -0.36104 0.481674 0.00791304 0.406639 -0.681174 0.135952 -0.753963 -0.605786 -0.446479 -0.610458 -0.238665 0.677038 1.01082 -0.849375 -0.619788 0.244385 -0.567927 -0.723478
internal_count=1242 698 544 260 169 562 48 514 320 226 186 74 131 284 112 70 44 46 91
shrinkage=0.1


Tree=18
num_leaves=20
num_cat=0
split_feature=11 0 2 9 0 2 13 9 8 14 22 14 0 1 1 11 13 9 23
split_gain=25.5533 11.5604 15.0352 7.1076 5.47166 4.27167 3.82138 3.16264 2.81474 2.85499 2.96942 2.76278 2.09202 2.87768 1.61083 1.29168 1.22958 0.869932 0.852226
threshold=0.21368226200000004 1.0000000180025095e-35 0.71472288350000013 0.18162915550000003 0.0075764620000000008 0.80890853450000011 0.10940761350000001 0.17556311399999999 0.15496633650000005 0.074087358000000006 0.049416362000000012 0.082056206000000007 0.00079057300000000014 0.011302682000000003 1.0000000180025095e-35 0.051476863500000004 0.075783822500000014 0.21703744850000004 0.07880545500000001
decision_type=2 2 2 2 2 2 2 2 2 2 2 2 2 2 2 2 2 2 2
left_child=1 2 -1 5 -3 -2 7 8 9 14 -11 15 -7 -14 -4 -6 -13 -9 -10
right_child=3 4 6 -5 11 12 -8 17 18 10 -12 16 13 -15 -16 -17 -18 -19 -20
leaf_value=0.089874162420949491 0.032380607713057653 0.10730239957393171 -0.012408603258048524 0.058885738594200737 -0.0029230791428747327 -0.10755440729988203 -0.097347747828605224 0.10409524470799277 -0.12297934373772053 0.037950218549491432 -0.092318510837528733 0.040174483128959201 0.00031211661665523607 -0.1010441521750025 0.088543124064826187 0.077257682669459454 -0.047058332562728948 0.014337363504699741 -0.047015768636184653
leaf_count=121 25 242 22 34 21 246 81 20 30 20 51 21 40 59 28 97 37 21 26
internal_value=0 0.311701 -0.0310786 -0.651925 0.706903 -0.792599 -0.384898 -0.188 -0.353296 -0.105341 -0.503249 0.32807 -0.897041 -0.540558 0.397836 0.611804 -0.169095 0.580417 -0.909725
internal_count=1242 838 420 404 418 370 299 218 177 121 71 176 345 99 50 118 58 41 56
shrinkage=0.1


Tree=19
num_leaves=20
num_cat=0
split_feature=17 14 2 14 0 6 9 9 23 9 20 6 12 2 17 2 19 9 21
split_gain=23.6805 8.2199 6.61264 4.86129 4.36745 4.15901 3.91956 3.11236 3.25239 2.77755 2.65046 2.64682 2.6769 2.12387 1.99669 1.86946 1.73658 1.47235 1.31641
threshold=0.120065925 0.056498517000000005 0.70299217950000015 0.16197672900000004 0.00079057300000000014 0.0039636715000000008 1.0000000180025095e-35 0.12646590100000002 0.077487553500000014 0.15650368850000004 0.11360412450000001 0.0019623575000000002 0.061460756000000012 0.83730023799999997 0.17049858400000004 0.88762325750000015 0.41822506350000005 0.088407615500000022 0.20071027950000003
decision_type=2 2 2 2 2 2 2 2 2 2 2 2 2 2 2 2 2 2 2
left_child=1 4 -3 7 13 10 11 8 -2 -8 -6 -4 -13 -1 -10 -5 17 -15 -9
right_child=3 2 6 15 5 -7 9 18 14 -11 -12 12 -14 16 -16 -17 -18 -19 -20
leaf_value=0.028847029880576715 0.070441820392233095 0.056563401979755623 -0.082397962057336349 0.037607239428012029 0.053854348035950211 0.089581237699508251 -0.096078595003478554 0.10851859049689772 -0.080271368120460693 -0.0099126369588959113 -0.081400312726643664 0.10515698688903062 -0.033342917854712328 -0.11956887435014318 0.036769769742047938 -0.076546481714540551 0.01838285394494496 -0.023100857475681361 0.033105650053328946
leaf_count=34 119 40 31 24 25 97 356 207 25 36 28 20 28 40 29 33 20 22 28
internal_value=0 -0.337546 -0.586693 0.585961 0.0972151 0.469585 -0.705457 0.715728 0.408117 -0.855269 -0.190683 -0.105379 0.311851 -0.326632 -0.207208 -0.26739 -0.592673 -0.838297 0.983903
internal_count=1242 777 511 465 266 150 471 408 173 392 53 79 48 116 54 57 82 62 235
shrinkage=0.1


Tree=20
num_leaves=12
num_cat=0
split_feature=7 7 7 7 7 20 19 7 7 12 10
split_gain=47.1085 32.0913 20.1629 7.94952 5.95302 4.44919 3.38851 3.5426 1.64793 0.886925 0.697086
threshold=0.025396825500000005 1.0000000180025095e-35 0.036507936500000011 0.050793650500000016 0.061904762000000009 0.15162625150000003 0.14919996900000002 0.11269841250000001 0.11269841250000001 0.036049363500000008 1.0000000180025095e-35
decision_type=2 2 2 2 2 2 2 2 2 2 2
left_child=1 9 -2 -4 -5 6 -6 -8 -7 -1 -9
right_child=2 -3 3 4 5 8 7 10 -10 -11 -12
leaf_value=0.038133903530445115 0.11112200467443795 -0.11156243023877693 -0.11976160251967699 0.11662553380845966 -0.043411348072966011 -0.12026205243155264 -0.012046809407928329 0.14415827695287048 -0.026609940778571952 0.11074421121326102 0.070671172829637738
leaf_count=20 407 482 43 52 21 24 28 21 39 84 21
internal_value=0 -0.728758 0.565355 -0.00744777 0.204338 -0.0266729 0.330559 0.661987 -0.602734 0.931422 1.14587
internal_count=1242 586 656 249 206 154 91 70 63 104 42
shrinkage=0.1


Tree=21
num_leaves=12
num_cat=0
split_feature=7 7 7 7 7 13 1 19 6 2 4
split_gain=41.6628 28.6698 18.4577 7.01993 5.34547 4.38997 3.32239 2.36188 1.28222 1.0449 0.621594
threshold=0.025396825500000005 1.0000000180025095e-35 0.036507936500000011 0.050793650500000016 0.061904762000000009 0.087350495500000014 0.022772448500000004 0.20770564800000002 0.0032171285000000007 0.92060523650000015 0.34495288900000004
decision_type=2 2 2 2 2 2 2 2 2 2 2
left_child=1 9 -2 -4 -5 6 7 -6 -7 -1 -9
right_child=2 -3 3 4 5 8 -8 10 -10 -11 -12
leaf_value=0.10999218020050097 0.10996340222170205 -0.11035890241277711 -0.11760961997577912 0.11481394084995276 -0.0039380854482485537 -0.12274362128518874 -0.067220378963535166 0.05671623725822611 -0.026500271616088585 0.027850615433373402 0.11699056758360182
leaf_count=84 407 482 43 52 26 24 30 29 21 20 24
internal_value=0 -0.718568 0.546888 -0.0068505 0.191957 -0.024506 0.252042 0.484988 -0.77735 0.906187 0.84913
internal_count=1242 586 656 249 206 154 109 79 45 104 53
shrinkage=0.1


Tree=22
num_leaves=20
num_cat=0
split_feature=11 17 17 0 2 16 0 19 19 19 17 22 14 2 4 22 0 25 22
split_gain=16.704 7.84799 4.95315 4.44756 3.78168 3.24967 3.08432 2.66473 2.48424 2.33687 2.26311 1.75597 1.79385 1.64838 1.39546 1.38377 1.14527 1.13521 1.05345
threshold=0.21368226200000004 0.10881982950000001 0.17373214050000005 1.0000000180025095e-35 0.71472288350000013 0.13464050150000004 0.0075764620000000008 0.22307363700000002 0.35347475700000008 0.33452059650000004 0.16240562350000001 0.086893055000000011 0.20221552450000005 0.82437946250000016 0.34994479300000009 0.035764847500000009 1.0000000180025095e-35 0.27883469100000008 0.13314054550000001
decision_type=2 2 2 2 2 2 2 2 2 2 2 2 2 2 2 2 2 2 2
left_child=1 3 5 4 -1 8 -5 10 15 18 13 12 14 -3 -6 -2 -4 -9 -8
right_child=2 7 16 6 11 -7 9 17 -10 -11 -12 -13 -14 -15 -16 -17 -18 -19 -20
leaf_value=0.051531082857670989 0.0040704893208928653 0.052709128395852539 -0.0072606213205650989 0.096920224022872495 0.05942498531552718 -0.10468033312620897 -0.0033193850268491152 0.096481018872264401 0.038032025295954827 0.061187085502638287 0.062666498713366034 -0.087087519383098083 -0.094649398166504084 -0.06919134371999261 -0.038242128280249948 -0.086193840071657368 0.10081383456566335 0.015373442268064495 -0.094527117285522863
leaf_count=44 21 20 20 83 25 232 29 257 33 44 90 103 32 33 32 76 22 26 20
internal_value=0 0.284703 -0.597603 -0.0378913 -0.336499 -0.745132 0.382816 0.649467 -0.354582 0.0234206 0.281072 -0.55026 -0.216969 -0.254641 0.0814939 -0.631186 0.460416 0.88229 -0.408989
internal_count=1242 838 404 412 236 362 176 426 130 93 143 192 89 53 57 97 42 283 49
shrinkage=0.1


Tree=23
num_leaves=20
num_cat=0
split_feature=11 9 5 9 8 9 23 12 16 9 24 9 5 20 9 23 11 21 23
split_gain=14.3413 6.56172 5.39208 4.53229 3.41171 3.2478 2.96174 2.68993 2.03539 1.60604 2.79921 1.51948 1.2999 1.12458 1.09079 1.49615 1.18989 0.994647 0.967604
threshold=0.21368226200000004 0.098006644500000004 0.26382112100000005 0.18162915550000003 0.14838490050000003 1.0000000180025095e-35 0.082868752500000017 0.019040945000000004 0.34442937550000008 0.17556311399999999 0.11561312950000001 0.012332081500000001 0.10297431250000001 0.18020625650000002 0.12056188350000001 0.045768381000000004 0.26170381950000005 0.061104884000000005 0.080914233000000016
decision_type=2 2 2 2 2 2 2 2 2 2 2 2 2 2 2 2 2 2 2
left_child=1 4 9 5 6 17 8 -8 12 10 18 -6 -1 -14 15 -7 -16 -2 -3
right_child=3 2 -4 -5 11 14 7 -9 -10 -11 -12 -13 13 -15 16 -17 -18 -19 -20
leaf_value=0.086683475602860063 0.033245923897453067 0.027699312646687776 -0.07220979787961862 0.053052866538203708 -0.01280419183555169 -0.021512649836900835 0.064172860759507386 -0.064484566840532651 -0.058842455801513552 0.10293597662747844 0.085949328561693752 -0.085975712351645361 0.056373064519769471 -0.034268425462264739 0.012970055270885206 -0.10956288238521915 -0.09541801737940836 -0.05854532480406674 -0.059605873661402013
leaf_count=95 29 42 30 34 66 27 23 77 22 178 150 67 39 24 25 243 24 22 25
internal_value=0 0.268847 0.616291 -0.569463 -0.0271239 -0.706341 0.195088 -0.290793 0.459881 0.753179 0.530541 -0.472244 0.589554 0.231921 -0.87608 -0.983595 -0.395357 0.00793145 -0.0413073
internal_count=1242 838 425 404 413 370 280 100 180 395 217 133 158 63 319 270 49 51 67
shrinkage=0.1


Tree=24
num_leaves=20
num_cat=0
split_feature=17 1 6 0 2 0 2 8 2 11 11 6 11 9 11 2 0 19 6
split_gain=13.3437 8.73003 4.22543 4.12989 4.63886 3.65926 5.70826 2.25398 2.2192 1.65585 1.58751 1.36249 1.12682 1.15966 1.05956 1.04191 0.879544 1.91079 0.850744
threshold=0.120065925 0.022772448500000004 0.0029164915000000004 0.00079057300000000014 0.83730023799999997 1.0000000180025095e-35 0.76368582150000008 0.16101773500000002 0.70299217950000015 0.21646593800000002 0.20655597350000002 0.0076159550000000006 0.15331971250000001 0.084284270000000008 0.21508730050000002 0.95800748050000017 0.0075764620000000008 0.31299333900000009 0.0010919950000000003
decision_type=2 2 2 2 2 2 2 2 2 2 2 2 2 2 2 2 2 2 2
left_child=1 2 8 4 -4 6 -2 9 -1 11 -5 -8 13 -3 15 -6 -7 -18 -10
right_child=5 12 3 10 14 16 7 -9 18 -11 -12 -13 -14 -15 -16 -17 17 -19 -20
leaf_value=0.051250346023773631 0.10309421710310736 -0.082211849177613178 0.06900869621507924 0.085669790153512726 -0.063683435208375216 0.10469357575842615 -0.0080246968294888973 -0.089041600936374546 -0.088134264752433591 -0.062813899114424004 -0.0054037284879302891 0.093170084789039154 -0.10083824622669779 0.037991444072831858 -0.10024573565222546 0.018278520662126291 0.0040962279221397674 0.10955467666901625 -0.035466256274194294
leaf_count=21 78 28 44 127 45 168 30 41 76 26 21 33 248 20 46 29 39 50 72
internal_value=0 -0.290942 -0.0332146 0.213011 -0.148664 0.510414 0.17489 -0.231314 -0.462772 0.0748335 0.662274 0.383449 -0.884094 -0.348953 -0.54105 -0.297085 0.845855 0.567159 -0.618294
internal_count=1242 777 481 312 164 465 208 130 169 89 148 63 296 48 120 74 257 89 148
shrinkage=0.1


Tree=25
num_leaves=12
num_cat=0
split_feature=7 7 7 7 7 7 7 19 7 17 22
split_gain=31.6509 21.6821 14.385 5.42251 3.93246 3.07579 2.97084 3.36035 1.59455 1.41124 0.902945
threshold=0.025396825500000005 1.0000000180025095e-35 0.036507936500000011 0.050793650500000016 0.061904762000000009 0.11269841250000001 0.26190476200000007 0.37439600350000007 0.087301587500000014 0.076844439000000028 0.15874839700000001
decision_type=2 2 2 2 2 2 2 2 2 2 2
left_child=1 10 -2 -4 -5 8 -7 9 -6 -8 -1
right_child=2 -3 3 4 5 6 7 -9 -10 -11 -12
leaf_value=0.1079849951951561 0.1080618058771667 -0.10853156640956207 -0.11458420867074895 0.11203013666310054 -0.017676126683114895 0.089363925079460491 -0.10625656164110382 0.093907886694915149 -0.12464048580269767 -0.0022197882334316289 0.027335151241924056
leaf_count=80 407 482 43 52 35 36 20 21 22 20 24
internal_value=0 -0.705374 0.524811 -0.00219009 0.185331 -0.0081347 0.279795 -0.118382 -0.600617 -0.548544 0.858147
internal_count=1242 586 656 249 206 154 97 61 57 40 104
shrinkage=0.1


Tree=26
num_leaves=11
num_cat=0
split_feature=7 7 7 7 7 17 12 8 6 2
split_gain=28.0366 19.4295 13.2071 4.80493 3.55056 2.69303 2.92065 1.74763 1.30351 1.02957
threshold=0.025396825500000005 1.0000000180025095e-35 0.036507936500000011 0.050793650500000016 0.061904762000000009 0.12071683700000001 0.013263028000000001 0.12697821850000005 0.0054169975000000004 0.92060523650000015
decision_type=2 2 2 2 2 2 2 2 2 2
left_child=1 9 -2 -4 -5 6 -6 -7 -8 -1
right_child=2 -3 3 4 5 7 8 -9 -10 -11
leaf_value=0.10699882538877264 0.10723157103946897 -0.10766102127503732 -0.11296195732875976 0.11067988543190158 0.028723870345091575 0.097718321363291394 -0.10937987809835353 -0.01053718555832083 -0.016864678569770843 0.016919328330808489
leaf_count=84 407 482 43 52 30 32 43 21 28 20
internal_value=0 -0.696608 0.508372 -0.00246825 0.174171 -0.00814888 -0.296397 0.527331 -0.735149 0.832824
internal_count=1242 586 656 249 206 154 101 53 71 104
shrinkage=0.1


Tree=27
num_leaves=20
num_cat=0
split_feature=11 6 6 9 9 19 5 9 9 8 23 16 8 16 19 15 6 9 8
split_gain=8.8379 5.30199 3.60059 3.18746 2.81205 2.62226 1.65168 2.63983 1.25864 1.65691 1.32454 1.14751 1.11396 0.973238 1.51545 0.96691 0.744188 0.710043 0.695978
threshold=0.21368226200000004 0.0029164915000000004 1.0000000180025095e-35 0.18162915550000003 1.0000000180025095e-35 0.25578514250000006 0.098499095000000023 0.14451809950000002 0.17768021350000002 0.15572444100000002 0.082055589000000026 0.38673116050000006 0.14545118700000001 0.096708895000000003 0.35597917550000008 0.037376604000000001 0.0019623575000000002 0.12868304600000002 0.082565317000000013
decision_type=2 2 2 2 2 2 2 2 2 2 2 2 2 2 2 2 2 2 2
left_child=1 2 -1 4 15 8 7 16 9 10 18 12 -7 14 -6 -2 -4 -14 -3
right_child=3 5 6 -5 13 11 -8 -9 -10 -11 -12 -13 17 -15 -16 -17 -18 -19 -20
leaf_value=0.065512448378749685 0.044978993637139975 0.024698890756882381 -0.078341097387952585 0.050515523217331749 -0.085673831880236084 0.094050761462711019 -0.081131742808563362 0.081691070009934003 0.077722149689790535 -0.051008546657239785 -0.017330853632405965 -0.028191346860982354 -0.0060763610377190039 -0.099221118919958884 0.032733351090202534 -0.050994906588869293 -0.0028564275571382721 0.089678629035817234 0.1015916056544391
leaf_count=65 28 35 54 34 48 262 78 34 54 51 55 20 34 251 20 23 37 28 31
internal_value=0 0.236733 -0.200522 -0.509187 -0.64386 0.478363 -0.435869 -0.119885 0.171638 0.032661 0.280683 0.744269 0.808298 -0.835046 -0.442446 0.0695437 -0.486301 0.281462 0.62313
internal_count=1242 838 268 404 370 570 203 125 226 172 121 344 324 319 68 51 91 62 66
shrinkage=0.1


Tree=28
num_leaves=12
num_cat=0
split_feature=7 7 7 7 7 13 1 5 25 12 11
split_gain=23.9326 16.59 11.5891 4.10459 3.07146 2.67343 1.88815 2.15641 1.07126 0.958724 0.474677
threshold=0.025396825500000005 1.0000000180025095e-35 0.036507936500000011 0.050793650500000016 0.061904762000000009 0.087350495500000014 0.022772448500000004 0.088880890000000004 0.20353996950000003 0.036049363500000008 0.23607925900000001
decision_type=2 2 2 2 2 2 2 2 2 2 2
left_child=1 9 -2 -4 -5 6 7 -6 -9 -1 -7
right_child=2 -3 3 4 5 10 -8 8 -10 -11 -12
leaf_value=0.016664786695810885 0.10637247033721249 -0.10675282922461643 -0.11091367798603968 0.10947616810347266 0.093131089746607582 -0.038327489798936826 -0.06057304677532558 -0.040583931919481966 0.047236199589131452 0.10600872747300734 -0.1089041181039293
leaf_count=20 407 482 43 52 38 20 30 20 21 84 25
internal_value=0 -0.689157 0.493071 -0.000660491 0.166638 -0.00528732 0.228256 0.413611 -0.00147692 0.801941 -0.709243
internal_count=1242 586 656 249 206 154 109 79 41 104 45
shrinkage=0.1


Tree=29
num_leaves=11
num_cat=0
split_feature=7 7 7 7 7 13 8 9 22 2
split_gain=21.1994 14.8965 10.6627 3.64719 2.77701 2.32299 1.82745 1.94741 1.87177 1.03564
threshold=0.025396825500000005 1.0000000180025095e-35 0.036507936500000011 0.050793650500000016 0.061904762000000009 0.099103800500000019 0.16167385300000001 0.13079764050000003 0.10318768150000002 0.92060523650000015
decision_type=2 2 2 2 2 2 2 2 2 2
left_child=1 9 -2 -4 -5 6 7 8 -6 -1
right_child=2 -3 3 4 5 -7 -8 -9 -10 -11
leaf_value=0.10533788118997932 0.10570980204834859 -0.1060594353528691 -0.10960289879358179 0.10833543198060201 0.069096042945376857 -0.078636267547317673 -0.040967914778400977 0.11769271454306947 -0.037320504686072592 0.0094533046817618042
leaf_count=84 407 482 43 52 27 34 28 27 38 20
internal_value=0 -0.680973 0.476839 -0.000794149 0.156384 -0.00515702 0.182787 0.424741 0.136085 0.776703
internal_count=1242 586 656 249 206 154 120 92 65 104
shrinkage=0.1


Tree=30
num_leaves=12
num_cat=0
split_feature=7 7 7 7 7 7 7 17 7 22 7
split_gain=18.792 13.3876 9.79945 3.24868 2.50746 2.19595 2.25505 1.86174 1.26107 1.01842 0.838238
threshold=0.025396825500000005 1.0000000180025095e-35 0.036507936500000011 0.050793650500000016 0.061904762000000009 0.11269841250000001 0.26190476200000007 0.10288421900000001 0.087301587500000014 0.15874839700000001 0.42539682550000008
decision_type=2 2 2 2 2 2 2 2 2 2 2
left_child=1 9 -2 -4 -5 8 -7 10 -6 -1 -8
right_child=2 -3 3 4 5 6 7 -9 -10 -11 -12
leaf_value=0.10493467424355343 0.10510933313625459 -0.10543233014819563 -0.10839754918599641 0.10727881206086767 -0.015054687042468266 0.082058505595884679 -0.085538382829533563 0.069160177518510849 -0.11993280103243494 0.008548949716593807 0.0030812633490367868
leaf_count=80 407 482 43 52 35 36 21 20 22 24 20
internal_value=0 -0.672957 0.461377 -0.000251609 0.147575 -0.00415173 0.254793 -0.125808 -0.556595 0.751583 -0.488746
internal_count=1242 586 656 249 206 154 97 61 57 104 41
shrinkage=0.1


end of trees

feature importances:
TF=95
graph_33=43
junction=29
H3k27ac=27
graph_35=27
graph_59=26
cons_2=24
graph_88=21
graph_22=16
graph_19=16
graph_28=15
graph_7=14
repeat=11
cons_1=10
graph_16=10
graph_51=9
graph_101=8
graph_6=8
methylation=7
graph_97=6
ALU=4
graph_96=4
graph_30=3
graph_81=2
A-to-I=1
SNP=1

parameters:
[boosting: gbdt]
[objective: binary]
[metric: auc]
[tree_learner: serial]
[device_type: cpu]
[data: ]
[valid: ]
[num_iterations: 100]
[learning_rate: 0.1]
[num_leaves: 20]
[num_threads: 0]
[max_depth: -1]
[min_data_in_leaf: 20]
[min_sum_hessian_in_leaf: 0.001]
[bagging_fraction: 0.6]
[bagging_freq: 0]
[bagging_seed: 3]
[feature_fraction: 0.6]
[feature_fraction_seed: 2]
[early_stopping_round: 0]
[max_delta_step: 0]
[lambda_l1: 0.01]
[lambda_l2: 0.03]
[min_gain_to_split: 0]
[drop_rate: 0.1]
[max_drop: 50]
[skip_drop: 0.5]
[xgboost_dart_mode: 0]
[uniform_drop: 0]
[drop_seed: 4]
[top_rate: 0.2]
[other_rate: 0.1]
[min_data_per_group: 100]
[max_cat_threshold: 32]
[cat_l2: 10]
[cat_smooth: 10]
[max_cat_to_onehot: 4]
[top_k: 20]
[monotone_constraints: ]
[feature_contri: ]
[forcedsplits_filename: ]
[refit_decay_rate: 0.9]
[verbosity: 1]
[max_bin: 255]
[min_data_in_bin: 3]
[bin_construct_sample_cnt: 200000]
[histogram_pool_size: -1]
[data_random_seed: 1]
[output_model: LightGBM_model.txt]
[snapshot_freq: -1]
[input_model: ]
[output_result: LightGBM_predict_result.txt]
[initscore_filename: ]
[valid_data_initscores: ]
[pre_partition: 0]
[enable_bundle: 1]
[max_conflict_rate: 0]
[is_enable_sparse: 1]
[sparse_threshold: 0.8]
[use_missing: 1]
[zero_as_missing: 0]
[two_round: 0]
[save_binary: 0]
[enable_load_from_binary_file: 1]
[header: 0]
[label_column: ]
[weight_column: ]
[group_column: ]
[ignore_column: ]
[categorical_feature: ]
[predict_raw_score: 0]
[predict_leaf_index: 0]
[predict_contrib: 0]
[num_iteration_predict: -1]
[pred_early_stop: 0]
[pred_early_stop_freq: 10]
[pred_early_stop_margin: 10]
[convert_model_language: ]
[convert_model: gbdt_prediction.cpp]
[num_class: 1]
[is_unbalance: 0]
[scale_pos_weight: 1]
[sigmoid: 1]
[boost_from_average: 1]
[reg_sqrt: 0]
[alpha: 0.9]
[fair_c: 1]
[poisson_max_delta_step: 0.7]
[tweedie_variance_power: 1.5]
[max_position: 20]
[label_gain: ]
[metric_freq: 1]
[is_provide_training_metric: 0]
[eval_at: ]
[num_machines: 1]
[local_listen_port: 12400]
[time_out: 120]
[machine_list_filename: ]
[machines: ]
[gpu_platform_id: -1]
[gpu_device_id: -1]
[gpu_use_dp: 0]

end of parameters

pandas_categorical:[]
