tree
version=v2
num_class=1
num_tree_per_iteration=1
label_index=0
max_feature_idx=14
objective=binary sigmoid:1
feature_names=junction methylation cons_2 repeat H3k27ac ALU cons_1 TF graph_74 graph_9 graph_56 graph_55 graph_33 graph_59 SNP
feature_infos=[0:1] [0:1] [0:1] [0:1] [0:1] [0:0.989795918] [-0.72149616900000002:1] [0:1] [0:1] [0:1] [0:0.83332365099999994] [0:0.89592785799999997] [0:1] [0:1] [0:1]
tree_sizes=1646 1642 1634 1565 1647 1639 1651 1649 1649 1657 1650 1663 1653 1656 1653 1653 1660 1647 1652 1652 1651 1570 1488 1491

Tree=0
num_leaves=20
num_cat=0
split_feature=13 10 12 12 12 3 3 0 12 0 0 6 13 0 6 0 10 13 9
split_gain=730.18 218.497 107.277 96.3258 82.6587 75.9681 52.9553 29.4013 32.3365 25.9247 40.5415 19.3951 19.1493 18.3064 17.8716 16.3347 14.7773 19.9955 12.6066
threshold=0.20177123000000002 0.18992268550000002 0.16301669400000002 0.097671540000000015 0.18182764700000001 0.022772448500000004 0.011302682000000003 0.00079057300000000014 1.0000000180025095e-35 1.0000000180025095e-35 0.0074112220000000003 0.062464482500000008 0.26411949950000008 0.0077844195000000014 0.19445696250000002 0.0011523025000000004 0.081842086000000022 0.23092196550000002 0.071374809500000011
decision_type=2 2 2 2 2 2 2 2 2 2 2 2 2 2 2 2 2 2 2
left_child=1 3 9 5 6 7 16 8 -1 -3 -11 -10 -6 -9 -5 -7 17 -2 -19
right_child=4 2 -4 14 12 15 -8 13 11 10 -12 -13 -14 -15 -16 -17 -18 18 -20
leaf_value=-0.10700702754583241 -0.11025557529858279 0.1543635723442123 -0.15052491990995126 -0.183808894151305 -0.19082195812151731 0.14076820210163576 0.18528634934733448 -0.20069749330718067 -0.057791060054892207 -0.20293664877467193 0.13811002163047287 0.10889598252606154 0.025926671990050353 -0.092028821418538312 -0.082456821194745081 -0.019380949232029869 0.1295745962805144 0.006288979195866482 0.13934290482779926
leaf_count=169 30 203 75 611 32 73 608 124 52 23 35 60 33 125 79 39 121 57 57
internal_value=0 -0.793879 0.647115 -1.15743 1.41164 -0.599585 1.57365 -0.915872 -0.471922 1.25292 0.0727306 0.361006 -0.762607 -1.41625 -1.67621 0.896149 0.826725 0.392891 0.775372
internal_count=2606 1668 336 1332 938 642 873 530 281 261 58 112 65 249 690 112 265 144 114
shrinkage=1


Tree=1
num_leaves=20
num_cat=0
split_feature=7 7 7 12 3 0 0 12 0 8 11 7 12 5 7 11 14 12 3
split_gain=786.653 801.75 266.011 129.141 60.2671 15.0374 10.3274 8.91883 7.15519 10.5847 5.37134 2.63971 2.3972 1.31636 1.14386 0.442111 1.10182 0.436575 0.377933
threshold=0.025396825500000005 1.0000000180025095e-35 0.036507936500000011 0.11228293050000002 0.011302682000000003 1.0000000180025095e-35 0.0077844195000000014 1.0000000180025095e-35 0.0011523025000000004 0.15546125050000001 0.081696022500000007 0.11269841250000001 0.17156917900000004 0.17701247200000003 0.076190476500000007 0.31699466850000008 0.00020559750000000003 0.099035139000000008 0.011302682000000003
decision_type=2 2 2 2 2 2 2 2 2 2 2 2 2 2 2 2 2 2 2
left_child=1 13 -2 4 5 7 -7 -4 17 -10 -5 -8 14 15 -12 -1 -17 -6 -3
right_child=2 18 3 10 8 6 11 -9 9 -11 12 -13 -14 -15 -16 16 -18 -19 -20
leaf_value=-0.19099045960533936 -0.18778919999679022 0.19506413524417801 -0.020332272153751413 -0.050785617980058186 0.18417057285741389 -0.18528540867750887 0.016911563762809438 0.12553912767966344 -0.0251168863036146 0.15476493596989288 -0.10143065907709031 -0.080010481746623452 -0.17931919991629272 -0.13025525805605173 -0.15658940107148961 -0.12782077384975254 -0.18749665504437943 0.14734969252008018 0.18583384894112251
leaf_count=216 768 399 38 23 105 27 24 30 20 38 36 21 80 20 29 20 44 20 648
internal_value=0 1.06526 -1.14048 0.0129772 0.754715 -0.234265 -0.87256 0.440543 1.51343 0.92661 -1.41405 -0.283213 -1.55729 -1.8246 -1.26346 -1.86107 -1.69201 1.78463 1.89385
internal_count=2606 1347 1259 491 323 140 72 68 183 58 168 45 145 300 65 280 64 125 1047
shrinkage=0.1


Tree=2
num_leaves=20
num_cat=0
split_feature=7 7 7 13 7 12 7 0 12 3 11 1 11 13 1 13 3 13 13
split_gain=650.66 663.444 221.441 132.88 49.2182 27.1656 21.4985 12.7553 11.3347 6.07283 3.9465 3.23009 2.82779 1.62696 0.594565 0.27398 0.233935 0.205261 0.116944
threshold=0.025396825500000005 1.0000000180025095e-35 0.036507936500000011 0.20177123000000002 0.050793650500000016 0.074545152000000017 0.061904762000000009 0.0011784105000000003 0.13191959450000004 0.011302682000000003 0.062315676000000007 0.25816081000000007 0.047171886000000003 0.25066507650000008 0.10832970000000001 0.19986088250000003 0.033908046000000004 0.18089437100000003 0.20742981300000005
decision_type=2 2 2 2 2 2 2 2 2 2 2 2 2 2 2 2 2 2 2
left_child=1 13 18 4 -4 6 -6 10 9 11 -8 -5 -7 17 -11 -3 -14 -1 -2
right_child=2 15 3 8 5 12 7 -9 -10 14 -12 -13 16 -15 -16 -17 -18 -19 -20
leaf_value=-0.17386777334451303 -0.17162619859329767 0.17875758220454438 0.18921767692370156 0.13250084456530789 -0.18880957838914258 -0.087356341361832415 0.03674577619166576 -0.07176418135129671 -0.012040330946816275 0.12961609539919375 0.16076247308852476 0.020905889969673096 -0.17334019507299725 -0.11024714470069333 0.17083234535292255 0.17070712054850179 -0.14709453213596516 -0.15244418391891443 -0.18393308399367514
leaf_count=247 697 425 24 21 24 20 20 29 21 20 22 21 126 20 118 622 25 33 71
internal_value=0 0.978373 -1.04677 0.0118408 -0.861284 -1.1122 -0.249086 0.309388 1.27727 1.44215 1.01722 0.770439 -1.5952 -1.67328 1.65005 1.74023 -1.69122 -1.7142 -1.72817
internal_count=2606 1347 1259 491 290 266 95 71 201 180 42 42 171 300 138 1047 151 280 768
shrinkage=0.1


Tree=3
num_leaves=19
num_cat=0
split_feature=7 7 7 7 7 3 3 10 10 1 5 3 11 2 7 3 10 3
split_gain=545.846 557.349 187.561 77.0248 66.7229 30.3773 14.5973 8.95944 5.95362 4.72457 4.55152 7.97192 3.66934 1.60395 1.28646 0.637087 0.103269 0.0753861
threshold=0.025396825500000005 1.0000000180025095e-35 0.036507936500000011 0.050793650500000016 0.061904762000000009 0.011302682000000003 1.0000000180025095e-35 0.14406262750000001 0.11851214100000002 0.74549225200000013 0.029040404000000002 0.056513410000000007 0.17740471850000003 0.96871812300000015 0.22539682550000004 0.16604010050000004 1.0000000180025095e-35 0.011302682000000003
decision_type=2 2 2 2 2 2 2 2 2 2 2 2 2 2 2 2 2 2
left_child=1 13 -2 17 -5 6 7 9 10 12 -7 -12 -6 15 -10 -1 -3 -4
right_child=2 16 3 4 5 8 -8 -9 14 -11 11 -13 -14 -15 -16 -17 -18 -19
leaf_value=-0.16357367297868255 -0.16129283583991497 0.16925206422767036 0.18391495170971911 -0.16873857849285928 0.018542515125832895 0.12337660660164716 -0.16527365836253879 0.077911849776339637 0.15511112597860147 -0.13374190350924597 -0.065979267798272512 0.10180821726104075 -0.081363001152980508 -0.10838159774951291 0.089836689752134991 -0.12247136892228748 0.16098027996693132 0.16228210845438762
leaf_count=251 768 153 22 116 38 22 34 32 42 20 26 22 25 29 20 20 894 72
internal_value=0 0.911594 -0.972794 0.0110126 -0.382348 0.155557 -0.468882 -0.126876 0.877954 -0.479014 0.46578 0.107761 -0.205596 -1.55591 1.34344 -1.60608 1.62241 1.67806
internal_count=2606 1347 1259 491 397 281 149 115 132 83 70 48 63 300 62 271 1047 94
shrinkage=0.1


Tree=4
num_leaves=20
num_cat=0
split_feature=0 2 0 4 4 3 10 4 10 3 3 10 2 8 8 8 0 3 3
split_gain=155.053 263.853 127.858 76.1757 55.5916 28.1702 24.0069 19.5812 17.8262 16.6496 12.0247 11.2503 7.59061 6.29896 5.94692 5.77336 5.74763 6.32398 4.41852
threshold=1.0000000180025095e-35 0.72441346500000015 0.0074112220000000003 0.0039564560000000014 1.0000000180025095e-35 0.033908046000000004 0.12454249700000002 0.0065520185000000003 0.11967685900000001 0.011302682000000003 1.0000000180025095e-35 0.14406262750000001 0.62580754850000009 0.26104492050000005 0.1753931705 0.17595564200000002 0.0051008285000000006 0.033908046000000004 0.033908046000000004
decision_type=2 2 2 2 2 2 2 2 2 2 2 2 2 2 2 2 2 2 2
left_child=1 12 16 -4 8 11 7 18 -3 10 15 13 -1 -5 -7 -9 -2 -18 -6
right_child=2 4 3 5 6 14 -8 9 -10 -11 -12 -13 -14 -15 -16 -17 17 -19 -20
leaf_value=-0.13848659049196282 -0.15287929077231627 -0.12196900599710969 0.099726914586397319 -0.11760573167242763 0.093439535955790465 -0.019789923331120552 0.13375079913668328 -0.037667149622953616 0.066403922652596536 0.07787016233881279 -0.15707543841296845 -0.0020708419306444078 -0.061902318463482424 -0.00664639311532311 0.10528889665489623 0.065239804701635887 -0.12626441036380306 -0.0091190323351367855 0.15203683272570245
leaf_count=261 380 67 225 204 171 26 558 53 33 158 24 58 73 25 48 42 86 27 87
internal_value=0 0.430476 -0.6094 0.0480094 0.89303 -0.550929 1.03045 0.714101 -0.602515 0.327298 -0.25544 -0.845613 -1.21657 -1.05387 0.612129 0.0750187 -1.40404 -0.983155 1.12938
internal_count=2606 1527 1079 586 1193 361 1093 535 100 277 119 287 334 229 74 95 493 113 258
shrinkage=0.1


Tree=5
num_leaves=20
num_cat=0
split_feature=7 7 7 7 7 0 0 10 2 5 10 7 2 8 5 9 10 0 7
split_gain=425.539 428.305 148.23 59.4825 51.751 24.1252 19.5023 12.457 12.3166 1.84668 1.71635 2.05172 1.41642 1.13955 0.580624 0.42395 0.140561 0.0494544 0.0307098
threshold=0.025396825500000005 1.0000000180025095e-35 0.036507936500000011 0.050793650500000016 0.061904762000000009 1.0000000180025095e-35 0.0077844195000000014 0.07888542350000001 0.80346820800000007 0.024092970500000001 0.12577702900000001 0.26190476200000007 0.96871812300000015 0.17676298300000001 0.17006802750000002 0.16418087800000003 1.0000000180025095e-35 1.0000000180025095e-35 0.11269841250000001
decision_type=2 2 2 2 2 2 2 2 2 2 2 2 2 2 2 2 2 2 2
left_child=1 12 17 -4 -5 8 18 -8 -6 -9 11 13 14 -10 -1 -12 -3 -2 -7
right_child=2 16 3 4 5 6 7 9 10 -11 15 -13 -14 -15 -16 -17 -18 -19 -20
leaf_value=-0.14872207536393112 -0.15266588155340793 0.15606044520500792 0.15266189432267577 -0.1536825508681334 -0.048751762725187241 -0.13319808730800178 -0.070928013612874985 0.042867697131851679 0.019610715282571353 0.12852891766874386 0.14970525008185895 0.13229802031829582 -0.095336733836082141 0.089220565952847344 -0.10846946340404384 0.10687050324224895 0.14713174326695921 -0.14624732815055497 -0.15416015257710733
leaf_count=251 225 153 94 116 28 20 39 20 21 24 32 22 29 20 20 20 894 543 35
internal_value=0 0.837662 -0.88684 0.00758993 -0.344207 0.13585 -0.485212 0.137658 0.738281 0.891835 1.04472 0.812666 -1.40821 0.533429 -1.45765 1.33588 1.48524 -1.48214 -1.47064
internal_count=2606 1347 1259 491 397 281 138 83 143 44 115 63 300 41 271 52 1047 768 55
shrinkage=0.1


Tree=6
num_leaves=20
num_cat=0
split_feature=13 10 12 12 1 0 2 2 3 0 12 13 10 12 3 0 13 0 8
split_gain=281.785 79.13 48.9231 34.1295 32.3313 45.447 25.9948 24.6264 21.5246 16.7096 13.2987 8.29448 8.29342 7.49345 6.88023 6.64514 6.21505 6.01453 4.81851
threshold=0.20177123000000002 0.21694491200000002 0.11228293050000002 0.18182764700000001 0.084594284500000005 1.0000000180025095e-35 0.70826249550000009 0.6776606595000001 0.011302682000000003 0.0074112220000000003 0.16148960550000002 0.26411949950000008 0.13550741150000004 1.0000000180025095e-35 0.011302682000000003 0.0077844195000000014 0.23673669100000003 1.0000000180025095e-35 1.0000000180025095e-35
decision_type=2 2 2 2 2 2 2 2 2 2 2 2 2 2 2 2 2 2 2
left_child=1 2 4 8 -1 7 -3 -6 13 -7 17 -5 -11 15 -9 -2 -15 -8 -4
right_child=3 6 18 11 5 9 10 14 -10 12 -12 -13 -14 16 -16 -17 -18 -19 -20
leaf_value=-0.12882062440932857 -0.021646002532433751 -0.11741687464186715 -0.048785922783455116 -0.13408946266275237 -0.10112251575653686 -0.13034506938366336 0.12738698503636131 0.038787996234369168 0.13124413064703386 -0.050333386878152697 -0.044581664554279414 0.019915309650790743 0.079161739012467508 0.011737182542996608 0.10971104067004173 0.10350749059426777 0.10937996435261561 0.027690591340745647 -0.12378618616206974
leaf_count=147 74 34 44 32 47 149 156 149 608 128 30 33 27 40 112 26 125 36 609
internal_value=0 -0.539009 -0.741085 0.961922 -0.368805 -0.150145 0.584301 0.428425 1.07799 -0.753987 0.862146 -0.54424 -0.275472 0.57023 0.685765 0.11012 0.854975 1.08322 -1.18619
internal_count=2606 1668 1412 938 759 612 256 308 873 304 222 65 155 265 261 100 165 192 653
shrinkage=0.1


Tree=7
num_leaves=20
num_cat=0
split_feature=12 3 3 1 12 12 8 6 2 3 3 1 1 12 9 8 1 1 2
split_gain=165.334 105.508 61.3518 41.7907 21.7096 21.6721 14.813 12.6419 11.9882 11.2877 11.7755 10.4593 5.74906 5.47814 5.5196 5.18192 4.83025 4.41005 4.08739
threshold=0.14087246050000002 0.011302682000000003 1.0000000180025095e-35 1.0000000180025095e-35 1.0000000180025095e-35 0.097671540000000015 0.20164595950000003 0.10285754400000001 0.76759605600000003 0.013154534000000001 0.033908046000000004 0.84375555300000016 0.33690834750000004 0.26940964150000007 0.19459464800000001 0.14327476050000001 1.0000000180025095e-35 0.16614608950000001 0.94100646050000014
decision_type=2 2 2 2 2 2 2 2 2 2 2 2 2 2 2 2 2 2 2
left_child=1 2 3 -1 12 8 9 -2 15 -7 -11 -6 -5 14 18 -3 -10 -12 -9
right_child=7 5 -4 4 11 6 -8 13 16 10 17 -13 -14 -15 -16 -17 -18 -19 -20
leaf_value=-0.11197028966745629 -0.11413017401420902 -0.050319624811841858 -0.13896834775628902 0.02152101157333948 0.086232375371394387 0.14042778152246993 0.1112541161646718 0.0078090050723184064 0.035840641315562229 -0.10278081073026751 -0.068981215024996309 -0.024631990840099493 -0.03613140844487913 -0.10148974923257881 0.078189258189904687 0.088043110644266676 0.12020393228591653 0.048466911973047727 -0.080499296263926712
leaf_count=122 498 30 175 148 279 23 80 45 36 62 20 49 180 59 22 22 623 75 58
internal_value=0 0.332737 -0.181904 0.0768656 0.292922 0.862716 0.307923 -0.950732 1.06792 -0.0491825 -0.266743 0.69795 -0.0983125 -0.460065 -0.199237 0.0694413 1.15435 0.230439 -0.416335
internal_count=2606 1924 953 778 656 971 260 682 711 180 157 328 328 184 125 52 659 95 103
shrinkage=0.1


Tree=8
num_leaves=20
num_cat=0
split_feature=13 10 12 12 12 3 3 6 12 13 12 2 10 13 10 5 6 12 10
split_gain=218.265 58.0926 33.8453 30.2826 29.2729 22.2621 17.636 8.62065 8.2443 7.90291 7.02292 6.43976 9.24971 6.19748 5.95821 6.9803 4.7746 3.86747 5.12531
threshold=0.19248998550000004 0.18992268550000002 0.17546583850000003 0.16148960550000002 0.085448865999999998 0.022772448500000004 0.011302682000000003 0.23083338400000003 1.0000000180025095e-35 0.25566461800000007 1.0000000180025095e-35 0.64093845650000014 0.091241128500000018 0.30465179300000006 0.081842086000000022 0.014520202000000001 0.073681838500000013 0.11665278550000001 0.10955182450000002
decision_type=2 2 2 2 2 2 2 2 2 2 2 2 2 2 2 2 2 2 2
left_child=1 4 6 8 5 11 10 -6 -3 -4 13 -1 -13 -2 15 -12 -5 -8 -19
right_child=2 3 9 16 7 -7 17 -9 -10 -11 14 12 -14 -15 -16 -17 -18 18 -20
leaf_value=-0.12102023832393463 -0.033558877101877022 0.014545562639517352 -0.12122882280210934 -0.12732599959842519 -0.11132002538504976 0.066648373179451756 0.12680678696764003 -0.022582731290463082 0.10402977711858497 0.017697904091892033 0.07659438733325763 -0.062097982007548159 0.017805294653310613 0.074323496690751431 0.12334588418245694 -0.062320386639432117 -0.0085929917684455358 -0.0015634504196069818 0.11920145990238934
leaf_count=66 64 76 44 53 668 91 557 58 169 37 68 317 92 40 84 23 24 28 47
internal_value=0 -0.512696 0.844175 0.352642 -0.726477 -0.350482 0.973254 -1.03595 0.749426 -0.531621 0.522725 -0.54287 -0.441489 0.0825511 0.797693 0.413213 -0.873438 1.19849 0.713801
internal_count=2606 1614 992 322 1292 566 911 726 245 81 279 475 409 104 175 91 77 632 75
shrinkage=0.1


Tree=9
num_leaves=20
num_cat=0
split_feature=13 10 0 2 3 4 0 4 4 3 13 9 0 0 2 4 10 10 0
split_gain=186.056 54.3388 32.2773 53.8974 20.5483 20.0637 24.4179 19.8049 27.033 13.1081 8.53321 8.31183 8.23314 16.5732 5.6301 5.28969 4.90468 4.38145 4.36303
threshold=0.20177123000000002 0.26439318150000007 1.0000000180025095e-35 0.70826249550000009 0.011302682000000003 0.0029164915000000004 0.0074112220000000003 1.0000000180025095e-35 0.0029164915000000004 1.0000000180025095e-35 0.15451872100000003 0.037593836000000012 0.00079057300000000014 0.005918065000000001 0.85073104350000017 0.0054169975000000004 0.11967685900000001 0.075246670000000015 0.041831734500000002
decision_type=2 2 2 2 2 2 2 2 2 2 2 2 2 2 2 2 2 2 2
left_child=1 2 3 -1 9 6 -4 -5 -9 11 16 14 -13 -14 -2 -15 -10 -16 -7
right_child=4 -3 5 7 -6 18 -8 8 10 -11 -12 12 13 15 17 -17 -18 -19 -20
leaf_value=-0.1113735055682164 -0.073142403942981396 0.08421903225065018 -0.12511609889394876 -0.098258469311860774 0.11011981720467096 -0.11923652206344507 0.054676994102026588 0.11647050828856796 -0.058168305076654492 -0.13771167142946639 0.051670824215841807 0.11265890607354774 -0.14699605004319261 0.14312653697287059 -0.011122206058317145 0.0051562412567330244 0.019194745760504339 0.11086813705072006 -0.048222731090154486
leaf_count=273 34 156 75 68 628 554 83 139 119 20 91 122 20 31 35 24 62 24 48
internal_value=0 -0.458022 -0.591189 -0.257429 0.836946 -0.931151 -0.217628 0.180504 0.359548 0.383311 -0.0475788 0.500941 0.762205 0.194338 -0.0349544 0.83003 -0.323597 0.379703 -1.13081
internal_count=2606 1668 1512 752 938 760 158 479 411 310 272 290 197 75 93 55 181 59 602
shrinkage=0.1


Tree=10
num_leaves=20
num_cat=0
split_feature=13 0 2 1 4 0 4 9 14 13 4 1 13 0 0 4 0 4 1
split_gain=158.923 46.7287 68.3363 36.6749 25.3274 27.4845 15.4556 13.5969 9.66252 9.28729 5.9326 5.40082 5.10101 6.71565 4.92621 4.65568 4.60973 4.05256 3.95478
threshold=0.21283946750000002 1.0000000180025095e-35 0.70826249550000009 1.0000000180025095e-35 0.0029164915000000004 0.0074112220000000003 0.0029164915000000004 0.023130241500000006 0.063006781000000012 0.16312830250000002 0.116070188 0.12452542900000001 0.25066507650000008 0.00079057300000000014 0.041831734500000002 0.0076440135000000005 0.0085650745000000004 0.0036046395000000008 0.20951501450000001
decision_type=2 2 2 2 2 2 2 2 2 2 2 2 2 2 2 2 2 2 2
left_child=1 2 -1 -4 5 -3 -5 11 12 10 18 -2 13 -9 -6 -16 -15 -13 -8
right_child=7 4 3 6 14 -7 9 8 -10 -11 -12 17 -14 16 15 -17 -18 -19 -20
leaf_value=-0.10353364620287314 -0.096219386498610449 -0.1219861795382379 -0.11739651130512332 0.10279839491522343 -0.11273909178106792 0.063384270556483227 0.061611331077766888 0.10020427067989855 -0.021846764796042958 0.087336126960150667 -0.10976557728897728 0.090889750438103864 0.11516347064486365 -0.079590643975756131 0.025190063168257927 -0.10958870238089435 0.052840385315784069 -0.01284414004403508 -0.0055423660533287546
leaf_count=293 20 78 76 226 577 101 60 144 33 95 22 34 530 20 25 27 43 41 161
internal_value=0 -0.404892 -0.0514214 0.355031 -0.825647 -0.0698542 0.553345 0.844999 0.960093 0.248764 0.0206856 0.0589253 1.02249 0.702861 -1.05936 -0.394624 0.0774223 0.333457 0.131657
internal_count=2606 1741 933 640 808 179 564 865 770 338 243 95 737 207 629 52 63 75 221
shrinkage=0.1


Tree=11
num_leaves=20
num_cat=0
split_feature=13 10 1 4 2 3 3 1 4 4 1 4 4 10 13 1 4 4 4
split_gain=136.281 38.9943 23.8753 28.2792 25.4547 19.1767 13.271 8.54776 8.46636 12.6889 7.97131 7.67378 6.71792 8.72403 6.50973 6.36387 6.19602 9.51687 8.75389
threshold=0.19248998550000004 0.26439318150000007 1.0000000180025095e-35 0.0029164915000000004 0.64093845650000014 0.011302682000000003 1.0000000180025095e-35 0.42691227050000008 0.0022358270000000006 0.0021840145000000004 1.0000000180025095e-35 1.0000000180025095e-35 0.0065520185000000003 0.09417603300000002 0.30465179300000006 1.0000000180025095e-35 0.00098117500000000015 0.0011603295000000003 0.0010919950000000003
decision_type=2 2 2 2 2 2 2 2 2 2 2 2 2 2 2 2 2 2 2
left_child=1 2 -1 4 -4 6 10 12 9 11 -2 -6 -5 -14 -12 -7 -13 18 -18
right_child=5 -3 3 7 8 15 -8 -9 -10 -11 14 16 13 -15 -16 -17 17 -19 -20
leaf_value=-0.11966736645958718 -0.05863537700283003 0.074974988213830571 -0.1185088916900829 0.011139645881760819 -0.052877560865574526 0.013994019910126235 -0.1314178145088985 -0.090080064993609668 0.14049524299246427 -0.13461553583008029 0.029129516585542178 0.12693363796074111 -0.088512778296401917 -0.0047804747156760946 0.10352109316977601 0.10623506568126213 0.055059351727040157 0.086148233722994225 -0.13432238547756695
leaf_count=290 35 145 77 99 35 46 27 407 40 25 175 56 199 108 97 612 27 78 28
internal_value=0 -0.426048 -0.544663 -0.400276 0.143236 0.719566 0.287476 -0.650412 0.435475 0.272488 0.418017 0.442535 -0.41005 -0.586974 0.5531 0.988494 0.631645 0.352235 -0.414086
internal_count=2606 1614 1469 1179 366 992 334 813 289 249 307 224 406 307 272 658 189 133 55
shrinkage=0.1


Tree=12
num_leaves=20
num_cat=0
split_feature=7 7 7 7 7 12 7 10 0 0 12 11 8 5 2 10 12 0 12
split_gain=254.183 227.708 82.8461 33.7043 27.8245 17.7066 7.41736 7.27528 3.52911 4.9271 2.25236 2.2352 2.22127 1.33403 0.756837 0.585236 0.451217 0.181618 0.165701
threshold=0.025396825500000005 1.0000000180025095e-35 0.036507936500000011 0.050793650500000016 0.061904762000000009 0.13584167200000002 0.076190476500000007 0.051618440500000008 0.0011523025000000004 0.010286293000000002 0.032410895500000002 0.16993653150000002 0.088697578000000013 0.17701247200000003 0.96871812300000015 1.0000000180025095e-35 0.085083122000000011 1.0000000180025095e-35 0.11296332550000002
decision_type=2 2 2 2 2 2 2 2 2 2 2 2 2 2 2 2 2 2 2
left_child=1 13 17 -4 18 6 -6 12 10 -10 -9 -7 -8 14 -1 -3 -12 -2 -5
right_child=2 15 3 4 5 11 7 8 9 -11 16 -13 -14 -15 -16 -17 -18 -19 -20
leaf_value=-0.12758855275517736 -0.13673096532403092 0.14355567145820211 0.13243259514406377 -0.14776569805623138 0.13772903090538863 -0.038555539605381564 0.0030563621023911407 0.021579900252050938 -0.086167847563686215 0.062234018574323181 0.12879531042306111 -0.13194699540598473 -0.090477066435425385 -0.055635418303807305 -0.082975371650314933 0.12721006844998692 0.08006170963501627 -0.12700023840192598 -0.12460293645378989
leaf_count=253 225 153 94 38 36 20 20 21 20 31 37 46 30 20 27 894 20 543 78
internal_value=0 0.76035 -0.783007 -0.0240612 -0.316425 0.0709416 0.392593 0.200332 0.516751 0.0446914 0.847361 -1.0085 -0.497155 -1.18331 -1.22973 1.30148 1.1175 -1.30172 -1.33781
internal_count=2606 1347 1259 491 397 281 215 179 129 51 78 66 50 300 280 1047 57 768 116
shrinkage=0.1


Tree=13
num_leaves=20
num_cat=0
split_feature=0 2 0 4 1 10 8 10 4 2 2 4 1 4 4 1 2 8 8
split_gain=54.8993 82.3605 54.7501 29.5264 24.9026 9.05403 8.05323 7.06713 6.53686 5.77541 5.28531 4.05315 3.90242 3.90009 3.47964 3.47545 3.45923 3.28385 3.16017
threshold=1.0000000180025095e-35 0.72441346500000015 0.0074112220000000003 0.0039564560000000014 1.0000000180025095e-35 0.12454249700000002 0.15471480050000003 0.10454796650000002 0.010732656000000002 0.88524311450000015 0.62580754850000009 0.014460302999999999 0.10832970000000001 0.0065520185000000003 0.0045768335000000012 0.39690386100000002 0.96072764350000017 0.15744646550000005 0.093408989500000011
decision_type=2 2 2 2 2 2 2 2 2 2 2 2 2 2 2 2 2 2 2
left_child=1 10 -2 -4 6 8 -3 13 18 -10 -1 -11 -12 14 -5 -14 -8 -9 -6
right_child=2 4 3 7 5 -7 16 17 9 11 12 -13 15 -15 -16 -17 -18 -19 -20
leaf_value=-0.10268498214409472 -0.11122514486930456 -0.11447365497297433 0.072992252591646933 -0.090012812445545196 0.034966160591316096 0.097456889042764519 -0.035872555050764914 -0.03389461648309755 -0.073267688693713945 -0.051593884260877493 -0.12061345594496863 0.052538076713742367 0.07697307732389258 -0.08654611350298301 0.025111689198646647 -0.046630061320994176 0.10131524933864054 0.047473444959139688 0.089644965475256563
leaf_count=261 493 63 225 26 82 571 25 57 30 25 23 145 20 168 43 30 20 67 232
internal_value=0 0.313127 -0.439816 0.0506378 0.621527 0.738892 -0.535444 -0.401988 0.507306 0.161982 -0.835447 0.355882 -0.272088 -0.655378 -0.162735 0.0600668 0.245398 0.0815616 0.733016
internal_count=2606 1527 1079 586 1193 1085 108 361 514 200 334 170 73 237 69 50 45 124 314
shrinkage=0.1


Tree=14
num_leaves=20
num_cat=0
split_feature=13 10 1 3 2 1 11 13 3 10 9 5 6 1 2 13 6 13 5
split_gain=95.917 31.8881 15.9817 13.9412 11.4321 10.428 7.34479 7.12316 5.46034 4.97115 4.94299 5.5071 4.3417 4.13862 4.07333 3.82593 3.78911 3.28622 2.49805
threshold=0.21283946750000002 0.21694491200000002 0.055955408500000005 0.011302682000000003 0.70826249550000009 0.44617293800000007 0.18703545000000002 0.17630280500000003 0.011302682000000003 0.12577702900000001 0.12414110500000002 0.012046485500000001 0.10072104550000001 1.0000000180025095e-35 0.97177830650000019 0.26781946600000001 0.37111311400000008 0.30616457200000008 0.012046485500000001
decision_type=2 2 2 2 2 2 2 2 2 2 2 2 2 2 2 2 2 2 2
left_child=1 2 -1 10 -3 6 8 9 14 -8 11 17 -7 -5 16 -13 -4 -2 -14
right_child=3 4 5 13 -6 12 7 -9 -10 -11 -12 15 18 -15 -16 -17 -18 -19 -20
leaf_value=-0.10706153224556032 -0.059209054757456171 -0.087189241262217151 -0.0014795386560813417 0.020270119515283166 0.066955775889420296 -0.077114877213609975 -0.070852981482336999 0.043365871408069634 0.096823220883992381 0.011849170514057776 0.069870719255093958 -0.0046192195818136345 -0.041184405569991242 0.10732283505257052 -0.079341163579499482 0.1235661728732303 0.093398255775754238 0.023461356270425657 0.044689119103941383
leaf_count=307 64 36 124 37 241 409 239 59 48 56 121 24 140 542 30 32 27 45 25
internal_value=0 -0.345154 -0.497337 0.727889 0.461774 -0.369509 -0.137492 -0.377515 0.191191 -0.540535 0.31367 0.0511271 -0.621294 1.00272 0.0119325 0.67942 0.170309 -0.248831 -0.281736
internal_count=2606 1741 1464 865 277 1157 583 354 229 295 286 165 574 579 181 56 151 109 165
shrinkage=0.1


Tree=15
num_leaves=20
num_cat=0
split_feature=7 7 7 7 7 12 4 7 0 2 7 1 2 12 4 1 12 14 0
split_gain=206.346 173.217 66.6282 27.0658 21.9101 13.5729 6.3364 6.75405 4.50427 5.00877 3.72603 1.67233 1.3813 0.976149 0.488061 0.314393 0.229873 0.207867 0.177712
threshold=0.025396825500000005 1.0000000180025095e-35 0.036507936500000011 0.050793650500000016 0.061904762000000009 0.11228293050000002 0.0021840145000000004 0.11269841250000001 0.0011523025000000004 0.95052703150000017 0.087301587500000014 0.25012716150000008 0.96871812300000015 0.05527951200000001 0.0054169975000000004 0.86914446700000003 1.0000000180025095e-35 0.0013204940000000002 1.0000000180025095e-35
decision_type=2 2 2 2 2 2 2 2 2 2 2 2 2 2 2 2 2 2 2
left_child=1 12 18 -4 -5 6 17 10 9 -9 13 -7 15 -8 -13 -1 -3 -6 -2
right_child=2 16 3 4 5 11 7 8 -10 -11 -12 14 -14 -15 -16 -17 -18 -19 -20
leaf_value=-0.12130025358283077 -0.13207911207093098 0.13474991342938261 0.12787153054692063 -0.12820774773486929 0.091590970615742937 -0.027987569752811595 -0.010683742809520218 -0.042583771159834506 -0.096863204838024242 0.12273005085634864 0.14340280192992669 -0.076465463446821966 -0.057601182084598315 0.068128161489332803 -0.12690203356200488 -0.085440123251112624 0.12282640488590638 0.1275041647519588 -0.12189530666307313
leaf_count=249 225 150 94 116 21 25 20 27 35 20 27 21 29 20 34 22 897 31 543
internal_value=0 0.745844 -0.750185 -0.0304831 -0.303361 0.0533329 0.390441 0.13252 -0.325261 0.173967 0.728957 -0.821818 -1.11401 0.233498 -1.06632 -1.18096 1.24974 1.13178 -1.25341
internal_count=2606 1347 1259 491 397 281 201 149 82 47 67 80 300 40 55 271 1047 52 768
shrinkage=0.1


Tree=16
num_leaves=20
num_cat=0
split_feature=13 0 1 0 4 3 10 4 1 4 4 14 10 13 1 10 10 4 1
split_gain=71.3324 26.0927 29.3197 16.8519 15.4865 12.052 11.0685 6.36106 7.42502 5.76688 5.69029 5.46884 3.47567 3.5923 3.8702 2.88318 3.67579 2.61929 4.18879
threshold=0.21283946750000002 1.0000000180025095e-35 1.0000000180025095e-35 0.0074112220000000003 0.0032528230000000006 0.011302682000000003 0.26439318150000007 0.096298285000000011 0.42691227050000008 1.0000000180025095e-35 0.0021840145000000004 0.050261742500000005 0.073076423500000015 0.25249452950000006 0.093234995000000015 0.09417603300000002 0.064183291500000017 0.0088504300000000011 0.84585573800000013
decision_type=2 2 2 2 2 2 2 2 2 2 2 2 2 2 2 2 2 2 2
left_child=1 2 -1 -3 -5 12 7 8 15 -10 -11 -7 13 -2 -15 16 -4 18 -6
right_child=5 3 6 4 17 11 -8 -9 9 10 -12 -13 -14 14 -16 -17 -18 -19 -20
leaf_value=-0.10445755952885337 -0.052840206426392158 -0.11142114227988892 0.040177159090533633 0.043759103439920344 -0.015474431142569725 0.10305652191959135 0.09334677597780261 -0.092893884886722844 -0.10125919843913961 0.065702112434031637 -0.025797427885244389 -0.011671794967912538 0.057068640959562239 -0.062115960928975249 0.055364249926859344 0.071490525457691634 -0.055368708781340717 -0.094304455910111232 -0.12283492165820689
leaf_count=198 48 432 108 107 93 548 139 43 57 66 152 31 140 20 78 137 33 141 35
internal_value=0 -0.310923 -0.00941068 -0.68027 -0.311 0.669634 0.209908 0.0661567 0.138095 -0.169897 0 0.950092 0.273105 0.0132586 0.288437 0.428515 0.191789 -0.673972 -0.417852
internal_count=2606 1741 933 808 376 865 735 596 553 275 218 579 286 146 98 278 141 269 128
shrinkage=0.1


Tree=17
num_leaves=20
num_cat=0
split_feature=7 7 7 7 7 12 13 8 12 7 2 7 1 8 13 1 13 13 6
split_gain=174.035 143.021 56.6202 22.8522 18.4425 10.9122 7.0035 7.30141 3.12855 1.93654 1.47876 1.1221 0.849294 0.577956 0.478639 0.309707 0.248859 0.0959238 0.0637716
threshold=0.025396825500000005 1.0000000180025095e-35 0.036507936500000011 0.050793650500000016 0.061904762000000009 0.14889112550000003 0.19248998550000004 0.058271152500000013 0.022461360500000003 0.11269841250000001 0.96871812300000015 0.21111111100000005 0.60486748200000007 0.17595564200000002 0.18900868150000003 0.86914446700000003 0.19770990600000002 0.19770990600000002 0.066173876000000006
decision_type=2 2 2 2 2 2 2 2 2 2 2 2 2 2 2 2 2 2 2
left_child=1 10 16 17 18 6 7 -6 -8 -9 15 -11 -10 -7 -3 -1 -2 -4 -5
right_child=2 14 3 4 5 13 8 9 12 11 -12 -13 -14 -15 -16 -17 -18 -19 -20
leaf_value=-0.11816819543055619 -0.11968567456811129 0.12879971217303468 0.14155928641736507 -0.11697120274238955 0.079114250840951986 -0.12433458721550467 -0.0017927969933962794 0.0045332294535661974 0.11686314339280519 -0.12430353249945772 -0.049484802272476265 -0.051051877970323872 0.051676144798591263 -0.069140736458424251 0.11569773214305396 -0.081236719382265912 -0.13552000388970037 0.11600610262723028 -0.13644441775787236
leaf_count=249 681 392 23 78 29 33 20 25 76 21 29 34 20 23 655 22 87 71 38
internal_value=0 0.730842 -0.725165 -0.0346193 -0.292294 0.04185 0.289082 -0.125856 0.777743 -0.551737 -1.07105 -0.804521 1.0249 -0.991479 1.21657 -1.14668 -1.22216 1.24874 -1.25018
internal_count=2606 1347 1259 491 397 281 225 109 116 80 300 55 96 56 1047 271 768 94 116
shrinkage=0.1


Tree=18
num_leaves=20
num_cat=0
split_feature=7 7 7 7 7 7 7 7 4 3 6 5 6 6 4 11 14 13 13
split_gain=153.208 126.677 51.1312 20.0897 16.4557 8.6179 8.37713 12.1079 3.80029 2.55204 1.95563 1.70555 1.31255 1.37986 0.945006 0.466637 1.43362 0.328821 0.153759
threshold=0.025396825500000005 1.0000000180025095e-35 0.036507936500000011 0.050793650500000016 0.061904762000000009 0.076190476500000007 0.087301587500000014 0.11269841250000001 0.0029164915000000004 0.022772448500000004 0.045639355000000006 0.17701247200000003 0.027078925500000007 0.21355760350000003 0.014993717000000002 0.31699466850000008 0.00020559750000000003 0.18900868150000003 0.19770990600000002
decision_type=2 2 2 2 2 2 2 2 2 2 2 2 2 2 2 2 2 2 2
left_child=1 11 18 -4 -5 -6 -7 -8 10 12 -9 15 -10 14 -14 -1 -17 -3 -2
right_child=2 17 3 4 5 6 7 8 9 -11 -12 -13 13 -15 -16 16 -18 -19 -20
leaf_value=-0.11793199611340313 -0.11761595136942049 0.12562139813714021 0.12221347933448178 -0.12235055905047597 0.12718114325668825 -0.1312604959082255 0.13807936289074316 -0.025319364607926706 -0.013899091364699799 0.019652028991403683 0.072141854204360908 -0.022026935749462462 -0.15034483679166391 -0.040876355373239193 -0.06804743122886639 -0.021260034873943266 -0.11834504756825036 0.11402701996069174 -0.13129056264717662
leaf_count=216 681 392 94 116 36 36 39 23 21 30 33 20 23 20 20 20 44 655 87
internal_value=0 0.715639 -0.702284 -0.032975 -0.276932 0.0391071 -0.130147 0.064832 -0.229962 -0.501568 0.31834 -1.04213 -0.715075 -0.891109 -1.18347 -1.10727 -0.866545 1.19335 -1.19836
internal_count=2606 1347 1259 491 397 281 245 209 170 114 56 300 84 63 43 280 64 1047 768
shrinkage=0.1


Tree=19
num_leaves=20
num_cat=0
split_feature=7 7 7 7 7 7 7 7 0 0 2 11 4 4 11 11 4 3 0
split_gain=135.164 112.437 46.2153 17.7203 14.7169 7.58656 7.39334 10.562 3.88854 5.04403 3.8757 1.72361 1.13042 0.853975 0.472254 1.15276 0.270763 0.113403 0.047196
threshold=0.025396825500000005 1.0000000180025095e-35 0.036507936500000011 0.050793650500000016 0.061904762000000009 0.076190476500000007 0.087301587500000014 0.11269841250000001 1.0000000180025095e-35 0.018834624500000004 0.82454947300000003 0.4594487295000001 0.0029164915000000004 0.013628468500000003 0.31699466850000008 0.34606175000000006 0.0054169975000000004 0.011302682000000003 1.0000000180025095e-35
decision_type=2 2 2 2 2 2 2 2 2 2 2 2 2 2 2 2 2 2 2
left_child=1 11 18 -4 -5 -6 -7 -8 10 16 -9 14 -12 -14 -1 -16 -10 -3 -2
right_child=2 17 3 4 5 6 7 8 9 -11 12 -13 13 -15 15 -17 -18 -19 -20
leaf_value=-0.11612452760473002 -0.12273088270327873 0.12159251614221407 0.11999704405381176 -0.1200803637738328 0.12413239827993197 -0.12785851297450967 0.13392889540208869 -0.067002120739181645 -0.080462530429429399 0.032948156059557802 0.10536861532476854 -0.018774562601806041 -0.0029669327872222082 0.0703491537339756 -0.025859978223908276 -0.1144286988643291 -0.12147288190253927 0.11349134314958104 -0.11495173076153216
leaf_count=216 225 399 94 116 36 36 39 23 20 24 22 21 21 20 20 43 40 648 543
internal_value=0 0.701871 -0.681844 -0.0314923 -0.263318 0.0367587 -0.121894 0.0602406 -0.211949 -0.623628 0.165317 -1.01471 0.520032 0.284851 -1.08508 -0.836852 -1.06427 1.17291 -1.17741
internal_count=2606 1347 1259 491 397 281 245 209 170 84 86 300 63 41 279 63 60 1047 768
shrinkage=0.1


Tree=20
num_leaves=20
num_cat=0
split_feature=7 7 7 7 7 12 4 3 13 11 1 0 1 11 7 11 13 13 13
split_gain=119.527 99.9781 41.7703 15.6702 13.1721 7.82874 5.34449 6.13207 2.96709 1.6781 1.66747 1.55023 1.05386 0.960462 0.755341 0.275314 0.152055 0.0508671 0.0470897
threshold=0.025396825500000005 1.0000000180025095e-35 0.036507936500000011 0.050793650500000016 0.061904762000000009 0.14889112550000003 0.0029164915000000004 0.011302682000000003 0.17772127050000003 0.4594487295000001 0.51949339450000009 1.0000000180025095e-35 0.86914446700000003 0.19256014400000002 0.18888888900000003 0.29530115700000009 0.18900868150000003 0.19770990600000002 0.20461425550000004
decision_type=2 2 2 2 2 2 2 2 2 2 2 2 2 2 2 2 2 2 2
left_child=1 9 17 -4 -5 6 10 11 -9 12 15 -8 18 -7 -13 -6 -3 -2 -1
right_child=2 16 3 4 5 13 7 8 -10 -11 -12 14 -14 -15 -16 -17 -18 -19 -20
leaf_value=-0.11070028217864931 -0.1141139053435683 0.12047260981742594 0.11800721298166804 -0.11805450873882893 0.1315491995365797 -0.04493815770072173 -0.012031203336504551 -0.013232891041125803 0.11288409372745097 -0.017097247126762475 0.033090427572870028 -0.051438090253241357 -0.051122057716137252 -0.12105972884444488 -0.12264920676869928 0.08321208478551019 0.11117551235080297 -0.12470765197348532 -0.12930360642069227
leaf_count=228 681 392 94 116 29 20 32 21 51 21 27 24 26 36 21 20 655 87 25
internal_value=0 0.689445 -0.663963 -0.030156 -0.251719 0.0349064 0.254797 -0.0452807 0.645627 -0.988513 0.834464 -0.483498 -1.06313 -0.907071 -0.830409 1.15556 1.15498 -1.15897 -1.14056
internal_count=2606 1347 1259 491 397 281 225 149 72 300 76 77 279 56 45 49 1047 768 253
shrinkage=0.1


Tree=21
num_leaves=19
num_cat=0
split_feature=7 7 7 7 7 7 7 7 7 3 1 5 5 10 1 1 5 10
split_gain=105.699 89.0034 37.9385 13.8624 11.8237 6.27855 6.25206 8.90806 3.47292 1.9455 2.04598 1.81065 1.45558 1.43308 1.14299 0.625559 0.110748 0.0411583
threshold=0.025396825500000005 1.0000000180025095e-35 0.036507936500000011 0.050793650500000016 0.061904762000000009 0.076190476500000007 0.087301587500000014 0.11269841250000001 0.1238095235 0.022772448500000004 0.30193462150000006 0.17701247200000003 0.043560606000000009 0.079966652000000013 0.65919130150000005 0.89432858600000009 0.053287982000000005 0.03573039900000001
decision_type=2 2 2 2 2 2 2 2 2 2 2 2 2 2 2 2 2 2
left_child=1 11 -2 -4 -5 -6 -7 -8 -9 10 13 15 -11 -10 -12 16 -1 -3
right_child=2 17 3 4 5 6 7 8 9 12 14 -13 -14 -15 -16 -17 -18 -19
leaf_value=-0.11257465952114441 -0.11425295997236436 0.12005621053364224 0.11621410287580083 -0.11623941239548925 0.12032295309277517 -0.12409678478295259 0.13020033204642315 -0.13075264457474556 -0.034261139758633909 0.10243300913947917 -0.102638637892628 -0.0074668108060638701 0.00073461402252991313 0.048994123850428985 -0.019069833227841206 -0.053013272946800999 -0.084494892566439522 0.11204451534736651
leaf_count=233 768 173 94 116 36 36 39 20 25 20 25 20 30 29 21 20 27 874
internal_value=0 0.677882 -0.645771 -0.0287405 -0.239395 0.0329409 -0.114486 0.0571627 -0.197717 -0.0626409 -0.254192 -0.962163 0.425535 0.0800768 -0.661747 -1.04174 -1.09613 1.13895
internal_count=2606 1347 1259 491 397 281 245 209 170 150 100 300 50 54 46 280 260 1047
shrinkage=0.1


Tree=22
num_leaves=18
num_cat=0
split_feature=7 7 7 7 7 7 7 7 7 4 2 6 1 2 13 5 13
split_gain=93.575 79.3401 34.5228 12.2804 10.6275 5.55608 5.55023 7.81307 3.10511 2.97448 2.03052 2.00466 3.10692 1.87012 1.50687 0.798284 0.0572396
threshold=0.025396825500000005 1.0000000180025095e-35 0.036507936500000011 0.050793650500000016 0.061904762000000009 0.076190476500000007 0.087301587500000014 0.11269841250000001 0.1238095235 0.0029164915000000004 0.96871812300000015 0.017036992000000004 0.29849814350000009 0.90530431800000011 0.17070239950000002 0.17006802750000002 0.18900868150000003
decision_type=2 2 2 2 2 2 2 2 2 2 2 2 2 2 2 2 2
left_child=1 10 -2 -4 -5 -6 -7 -8 -9 13 15 -11 14 -10 -13 -1 -3
right_child=2 16 3 4 5 6 7 8 9 11 -12 12 -14 -15 -16 -17 -18
leaf_value=-0.11149291589665922 -0.11280864808732836 0.11643679015930637 0.11459285303003884 -0.11460729064871006 0.11805028193947197 -0.12149997183030442 0.1269560117070343 -0.12753483171295818 -0.0022157020761611069 0.032866623074581089 -0.019432815700406895 -0.072607798416907496 -0.1336341775015856 0.10271220206343881 0.021972703995387251 -0.042361845388860432 0.10893947111617888
leaf_count=251 768 392 94 116 36 36 39 20 22 25 29 20 25 29 29 20 655
internal_value=0 0.667253 -0.628665 -0.0273608 -0.227824 0.0311984 -0.107229 0.0534425 -0.182324 -0.0570605 -0.936391 -0.324377 -0.546693 0.485473 -0.161494 -1.05143 1.12478
internal_count=2606 1347 1259 491 397 281 245 209 170 150 300 99 74 51 49 271 1047
shrinkage=0.1


Tree=23
num_leaves=18
num_cat=0
split_feature=7 7 7 7 7 7 7 7 0 0 2 2 9 3 11 11 13
split_gain=82.9634 70.8029 31.4096 10.901 9.55429 4.929 4.93345 6.87563 3.07028 4.09132 2.92413 1.98939 1.36645 0.797383 0.668488 0.27505 0.0269848
threshold=0.025396825500000005 1.0000000180025095e-35 0.036507936500000011 0.050793650500000016 0.061904762000000009 0.076190476500000007 0.087301587500000014 0.11269841250000001 1.0000000180025095e-35 0.018834624500000004 0.82454947300000003 0.96871812300000015 0.16475692150000001 0.16604010050000004 0.30182860100000009 0.30791875600000002 0.18900868150000003
decision_type=2 2 2 2 2 2 2 2 2 2 2 2 2 2 2 2 2
left_child=1 11 -2 -4 -5 -6 -7 -8 10 15 -9 13 14 -1 -12 -10 -3
right_child=2 16 3 4 5 6 7 8 9 -11 12 -13 -14 -15 -16 -17 -18
leaf_value=-0.11019172024936259 -0.11151794602609187 0.11473083186840603 0.11312252866685689 -0.11313490281883101 0.11601415358741068 -0.11916950488959879 0.12405287716197583 -0.057985853930547407 -0.081110101543371685 0.03346381049528193 0.10848217229722855 -0.017695129448522837 -0.0035370124535685356 -0.039907394259679971 0.034588786337423835 -0.12470754310008503 0.10801886457900137
leaf_count=251 768 392 94 116 36 36 39 23 32 24 23 29 20 20 20 28 655
internal_value=0 0.657376 -0.613099 -0.0262516 -0.217662 0.0294666 -0.101133 0.049975 -0.169533 -0.571866 0.173773 -0.911313 0.496879 -1.03382 0.80032 -1.01115 1.11207
internal_count=2606 1347 1259 491 397 281 245 209 170 84 86 300 63 271 43 60 1047
shrinkage=0.1


end of trees

feature importances:
TF=91
junction=44
graph_59=40
H3k27ac=39
methylation=36
repeat=36
graph_56=34
graph_33=34
cons_2=29
graph_55=16
graph_74=14
ALU=13
cons_1=12
graph_9=7
SNP=5

parameters:
[boosting: gbdt]
[objective: binary]
[metric: auc]
[tree_learner: serial]
[device_type: cpu]
[data: ]
[valid: ]
[num_iterations: 100]
[learning_rate: 0.1]
[num_leaves: 20]
[num_threads: 0]
[max_depth: -1]
[min_data_in_leaf: 20]
[min_sum_hessian_in_leaf: 0.001]
[bagging_fraction: 0.6]
[bagging_freq: 0]
[bagging_seed: 3]
[feature_fraction: 0.6]
[feature_fraction_seed: 2]
[early_stopping_round: 0]
[max_delta_step: 0]
[lambda_l1: 0.01]
[lambda_l2: 0.03]
[min_gain_to_split: 0]
[drop_rate: 0.1]
[max_drop: 50]
[skip_drop: 0.5]
[xgboost_dart_mode: 0]
[uniform_drop: 0]
[drop_seed: 4]
[top_rate: 0.2]
[other_rate: 0.1]
[min_data_per_group: 100]
[max_cat_threshold: 32]
[cat_l2: 10]
[cat_smooth: 10]
[max_cat_to_onehot: 4]
[top_k: 20]
[monotone_constraints: ]
[feature_contri: ]
[forcedsplits_filename: ]
[refit_decay_rate: 0.9]
[verbosity: 1]
[max_bin: 255]
[min_data_in_bin: 3]
[bin_construct_sample_cnt: 200000]
[histogram_pool_size: -1]
[data_random_seed: 1]
[output_model: LightGBM_model.txt]
[snapshot_freq: -1]
[input_model: ]
[output_result: LightGBM_predict_result.txt]
[initscore_filename: ]
[valid_data_initscores: ]
[pre_partition: 0]
[enable_bundle: 1]
[max_conflict_rate: 0]
[is_enable_sparse: 1]
[sparse_threshold: 0.8]
[use_missing: 1]
[zero_as_missing: 0]
[two_round: 0]
[save_binary: 0]
[enable_load_from_binary_file: 1]
[header: 0]
[label_column: ]
[weight_column: ]
[group_column: ]
[ignore_column: ]
[categorical_feature: ]
[predict_raw_score: 0]
[predict_leaf_index: 0]
[predict_contrib: 0]
[num_iteration_predict: -1]
[pred_early_stop: 0]
[pred_early_stop_freq: 10]
[pred_early_stop_margin: 10]
[convert_model_language: ]
[convert_model: gbdt_prediction.cpp]
[num_class: 1]
[is_unbalance: 0]
[scale_pos_weight: 1]
[sigmoid: 1]
[boost_from_average: 1]
[reg_sqrt: 0]
[alpha: 0.9]
[fair_c: 1]
[poisson_max_delta_step: 0.7]
[tweedie_variance_power: 1.5]
[max_position: 20]
[label_gain: ]
[metric_freq: 1]
[is_provide_training_metric: 0]
[eval_at: ]
[num_machines: 1]
[local_listen_port: 12400]
[time_out: 120]
[machine_list_filename: ]
[machines: ]
[gpu_platform_id: -1]
[gpu_device_id: -1]
[gpu_use_dp: 0]

end of parameters

pandas_categorical:[]
